%YAML:1.0
my_svm: !!opencv-ml-svm
   svm_type: C_SVC
   kernel: { type:LINEAR }
   C: 1.
   term_criteria: { epsilon:1.1920928955078125e-07, iterations:1000 }
   var_all: 586
   var_count: 586
   class_count: 16
   class_labels: !!opencv-matrix
      rows: 1
      cols: 16
      dt: i
      data: [ 1, 2, 3, 4, 5, 6, 7, 8, 9, 10, 11, 12, 13, 14, 15, 16 ]
   sv_total: 120
   support_vectors:
      - [ -6.97577139e-03, -1.54121026e-01, -5.15015163e-02,
          -2.11575955e-01, 1.71205580e-01, 2.48998702e-01, 0.,
          6.53010964e-01, 4.72859852e-02, 4.72859852e-02, 0.,
          5.08123159e-01, 0., 0., -6.24489821e-02, 0., 0., 0., 0., 0.,
          -2.42841452e-01, 0., 0., 0., -3.22761655e-01, 1.03604525e-01,
          0., 0., -2.81359673e-01, 0., 4.24703866e-01, 0.,
          -1.65663689e-01, 0., 0., 0., 0., -3.22761655e-01,
          -2.42841452e-01, 1.85465273e-02, 0., -2.67778993e-01, 0., 0.,
          0., -4.50651012e-02, -5.62963426e-01, 0., 0., 3.05144638e-01,
          -7.72250891e-02, 0., 1.62070870e-01, 0., -8.14987838e-01, 0.,
          8.13847661e-01, 0., 0., 7.57158518e-01, 1.62070870e-01, 0., 0.,
          0., 0., 0., 5.53261675e-03, 0., 1.79737195e-01, 1.42604232e-01,
          -1.91610456e-01, 0., 0., 8.84336531e-01, 0., 1.49160251e-01,
          3.69655937e-01, 2.07487643e-01, 1.49160251e-01, 6.21197164e-01,
          8.68371308e-01, 0., 0., -7.02509820e-01, 4.17927623e-01,
          -1.40858516e-01, 0., 0., 0., 2.25567490e-01, 0.,
          -1.53370187e-01, 1.84039488e-01, -1.66883707e-01, 0.,
          -1.86152324e-01, 0., 4.65731859e-01, 3.79499584e-01, 0.,
          -8.82889807e-01, 0., 0., 2.02034429e-01, 0., 0., 0., 0.,
          6.77977726e-02, 0., 0., 0., 0., 0., 0., 0., 0., 0., 0., 0., 0.,
          -6.49102211e-01, 0., 0., 0., 0., 0., 0., 0., 0., 0., 0.,
          6.76564157e-01, 9.82379794e-01, 0., 0., 0., 0., 0.,
          -6.53197050e-01, -2.97779758e-02, -2.64453739e-01, 0., 0., 0.,
          2.57466324e-02, 0., 0., 5.69500387e-01, 5.30732930e-01, 0.,
          -3.67509097e-01, 0., -9.07048285e-02, 5.28408825e-01,
          9.37116265e-01, 0., -3.93852144e-02, 0., 0., 0., 0.,
          -8.11507627e-02, 0., 0., 7.88793802e-01, 0., 0., 0., 0., 0.,
          0., 0., 0., 0., 0., 0., 0., 0., 0., 0., 0., 0., 0., 0.,
          2.28575394e-01, 0., 0., 0., -1.22347184e-01, -8.11507627e-02,
          0., 0., 0., 0., 0., 0., 0., 9.99602024e-04, 9.99602024e-04, 0.,
          3.77774090e-01, 5.03814101e-01, 0., 0., 0., 0., 0.,
          -3.68050635e-01, 0., -1.88892558e-01, -2.28674427e-01,
          -1.53370187e-01, 0., 0., 0., 0., 6.67065680e-02,
          -3.41788977e-01, 8.51509809e-01, 0., 0., 6.52690351e-01, 0.,
          0., -2.28674427e-01, 3.07353307e-02, 0., 0., -3.33955944e-01,
          0., 0., 0., 0., 0., -9.21391919e-02, 0., 0., 0., 0., 0., 0.,
          0., 0., 0., 0., 0., 9.95970547e-01, 1.55245185e+00,
          1.62688470e+00, 1.76350224e+00, 1.55089998e+00,
          -3.71805161e-01, -7.68184125e-01, -5.84324539e-01,
          8.49841237e-01, 1.21875060e+00, 1.91420305e+00, 4.07171905e-01,
          1.75133491e+00, -4.68802720e-01, 4.29449260e-01, 0.,
          1.07514846e+00, 0., 5.75111151e-01, 1.12617707e+00,
          1.24600363e+00, 7.12741435e-01, 5.75111151e-01, 6.00271285e-01,
          0., 0., 0., 0., 0., 0., 0., 0., 0., 2.43724525e-01, 0., 0., 0.,
          0., 0., 0., -8.87772202e-01, 0., 2.40009621e-01, 0.,
          -2.99329430e-01, 1.11021169e-01, 9.37545672e-02,
          1.76498055e-01, 5.64044356e-01, -1.82106942e-01,
          2.56905735e-01, 0., 0., 0., 0., -3.39871854e-01, 0.,
          -3.63400102e-01, 3.24748397e-01, 0., -3.36356424e-02,
          1.45663902e-01, -5.56193173e-01, -2.33301744e-01,
          4.23938185e-01, 2.05901146e-01, 0., 0., 0., 0.,
          -1.78601295e-01, 0., 1.68076769e-01, 1.68076769e-01, 0., 0.,
          0., 0., 0., 0., 0., 2.40771666e-01, 3.17130357e-01, 0.,
          -5.14227211e-01, 1.87405512e-01, 0., 6.60128176e-01, 0., 0.,
          -5.16086936e-01, 0., 5.19735157e-01, 0., -1.73814744e-01, 0.,
          0., 0., 2.89476275e-01, 0., 0., 0., 0., 4.16437715e-01, 0., 0.,
          0., 0., 4.30328548e-01, -2.61849821e-01, 0., 0., 0.,
          7.66289458e-02, 0., 5.25862202e-02, 0., 0., 0., 0., 0., 0.,
          2.83600420e-01, 0., 0., 0., 0., 0., 0., 0., 2.30298012e-01, 0.,
          0., 2.23869324e-01, 0., -2.60330617e-01, 0., 0., 0.,
          -6.11256719e-01, 0., 0., 0., 0., 0., 0., 0., 0., 0., 0., 0.,
          -1.52835950e-01, -6.25894442e-02, 0., 0., -6.25894442e-02,
          6.48382902e-01, 0., -9.73922014e-02, -2.04961687e-01, 0.,
          -2.36079499e-01, -5.47047138e-01, 3.14345658e-01,
          -3.70990157e-01, 0., 0., 0., -4.70146723e-02, -9.73922014e-02,
          0., -6.79855227e-01, 0., -6.84170723e-01, -5.16181529e-01,
          3.51283431e-01, -7.35354185e-01, -3.93852144e-02,
          -8.62098277e-01, -6.86287761e-01, 0., 0., -2.28674427e-01, 0.,
          0., -1.85600519e-01, -1.13748573e-01, 2.20043853e-01,
          -7.76056707e-01, -8.66947472e-02, 0., -7.83113480e-01,
          -1.52870879e-01, -6.18769884e-01, -1.09211874e+00,
          -3.77642870e-01, -4.95326370e-02, -5.25473118e-01, 0.,
          1.85012147e-01, -4.84418064e-01, 0., -4.08956140e-01,
          -6.45185187e-02, 0., 0., -9.20252800e-01, -7.95402288e-01,
          -1.08681762e+00, -5.09338498e-01, -2.40505829e-01,
          -1.82107493e-01, 0., 4.55512464e-01, -3.06160986e-01,
          -7.29458869e-01, -8.45149934e-01, -3.97626847e-01,
          -1.61156571e+00, -8.03477585e-01, -7.87592530e-01, 0., 0., 0.,
          -8.62737000e-01, -7.54543483e-01, -7.46100605e-01,
          -5.18532753e-01, 0., -6.47299707e-01, -3.22761655e-01,
          -1.37272966e+00, -1.80728316e+00, -6.80362403e-01, 0., 0., 0.,
          0., -2.04927459e-01, 0., 0., 0., 0., 0., -1., 0., 0.,
          -4.48869402e-03, 0., 0., 0., -3.91269565e-01, 0., -2., 0., 0.,
          0., 0., 0., 0., 0., 0., 0., 0., -1.34178901e+00, 0., 0., 0.,
          -6.82869613e-01, -6.81573510e-01, 0., 0., -1.51350424e-01, 0.,
          0., 0., 0., 0., 0., 0., 0., 0., 0., 0., -1.68162656e+00,
          -7.48734415e-01, -1.07327938e+00, -1.21308291e+00,
          -6.77969903e-02, 0., -1.63075471e+00, -1.55309212e+00,
          -9.55264390e-01, -6.81524754e-01, 0., -1.57330170e-01, 0., 0.,
          -1.78932929e+00, 0., 5.31197250e-01, 7.61673450e-01,
          -8.23227584e-01, -6.42566800e-01, -8.43808055e-01, 0., 0., 0.,
          -1.25271940e+00, 0., -2.29160738e+00, -1.11314690e+00,
          -6.68924928e-01, -1.14215277e-01, -4.31686461e-01,
          -4.55021322e-01, 0., -1.04754913e+00, -1., -5.06256282e-01,
          -3.33740771e-01, -1.07085812e+00, -8.25544715e-01,
          -6.07992291e-01, -3.93852144e-02, 0., 2.15878665e-01,
          -3.46989036e-01, -1.04965329e+00, -8.72468501e-02,
          -2.02470720e-01, -7.41586089e-01, -1.05724847e+00, 0.,
          -5.06823123e-01, -2.34170616e-01, -7.93267548e-01,
          -5.23646891e-01, -5.14227211e-01 ]
      - [ -1.80127677e-02, -2.01890804e-02, -2.19726041e-02,
          -9.27182671e-04, -2.30357032e-02, -1.11603178e-02, 0., 0.,
          -2.38152202e-02, -8.13395157e-03, -1.53624276e-02,
          -3.47504094e-02, 0., 0., -3.34308594e-02, -1.51595175e-02,
          -7.05663115e-03, 0., -2.30256766e-02, -2.30256766e-02,
          -1.62183959e-03, -3.24502289e-01, -9.38758161e-03, 0., 0.,
          -5.25408424e-03, 0., 0., 0., 0., -2.01662108e-02, 0.,
          -2.45130993e-02, 0., 0., 0., 0., -1.84449814e-02,
          -3.04330941e-02, 1.70600284e-02, 0., -1.65080186e-02, 0., 0.,
          -2.91721933e-02, 0., 0., 0., 0., 2.48098117e-03, 0., 0.,
          3.00111640e-02, 0., -1.77987982e-02, 0., -2.06210613e-02, 0.,
          0., 0., -2.62602754e-02, 0., 0., 0., 0., 0., 9.47643910e-03,
          4.74490924e-03, 4.19857632e-03, -4.02742065e-03, 0., 0., 0.,
          1.80907845e-02, 0., 1.80907845e-02, 1.95987783e-02,
          7.35263061e-03, 1.80907845e-02, -1.91255771e-02,
          -2.46446803e-02, 0., 0., -4.41412395e-03, -2.12997478e-02,
          3.57950176e-03, 0., 0., -1.30534833e-02, -8.22552200e-03, 0.,
          -9.65427514e-03, -7.66980555e-03, 0., 0., 4.81550097e-02, 0.,
          -8.98006745e-03, -2.75306236e-02, 0., 0., -3.12579386e-02, 0.,
          -4.63173632e-03, 0., 0., -2.09137257e-02, 0., -1.73313804e-02,
          -3.27879912e-03, -3.27879912e-03, 0., 0., -3.27879912e-03, 0.,
          0., 0., 0., 0., -1.77201144e-02, 0., -1.53624276e-02, 0., 0.,
          0., 0., 0., 0., 0., 0., 0., 0., -6.12206711e-03, 0.,
          1.32386833e-02, 0., 0., 0., 0., 0., 2.99254134e-02, 0., 0., 0.,
          -1.29394140e-02, -1.14578912e-02, 0., 0., -7.81828910e-03,
          1.74344350e-02, 0., 2.11800188e-02, 0., -3.49681228e-02, 0.,
          1.54995359e-03, 0., 0., 0., 4.85315658e-02, 0., 0., 0., 0., 0.,
          0., 0., 0., 0., 0., 0., 0., 0., 0., 0., 0., 0., 0., 0., 0., 0.,
          0., 0., 0., 0., 0., 0., 0., 0., 0., 0., 9.75225773e-03, 0., 0.,
          0., 0., 2.28267200e-02, 0., -3.04762870e-02, 0., 0.,
          -1.07979635e-02, 0., 0., 0., 0., 0., 2.28267200e-02, 0., 0.,
          9.75225773e-03, 0., 0., 0., 0., 0., 0., 3.45325866e-03, 0.,
          2.02150419e-02, 0., 0., 1.03820562e-02, 0., 0., 0.,
          1.88156851e-02, 0., 0., 9.50922351e-03, 0., 0., 0., 0., 0., 0.,
          0., 0., 0., 0., 0., 0., 0., 0., 0., 6.09949715e-02, 0.,
          1.98660600e+00, 1.99221230e+00, 1.99825060e+00, 2.00082636e+00,
          2.00699162e+00, 2.50677913e-02, 0., 4.76207137e-02,
          2.02387834e+00, 1.98833191e+00, 1.99578726e+00, 1.96023571e+00,
          1.99708068e+00, 0., 1.95427084e+00, 1.32386833e-02,
          1.99070990e+00, 0., 1.65896440e+00, 1.97234535e+00,
          1.96597123e+00, 1.98758352e+00, 3.34462136e-01, 0., 0., 0., 0.,
          0., 0., 0., 0., 0., 0., 2.71486491e-02, 0., 0., 0., 0., 0., 0.,
          0., 0., 0., 0., -1.42605081e-02, -1.33044915e-02,
          -1.23310443e-02, -2.20921226e-02, -1.35394884e-02,
          -1.34080024e-02, -1.24351075e-02, 0., -2.78015286e-02, 0., 0.,
          -4.04985212e-02, -3.86566520e-02, -9.46229324e-03,
          -1.59891602e-02, -5.05275617e-04, 1.11410590e-02,
          -2.59017199e-02, -2.85639856e-02, -1.39861144e-02,
          -3.19592245e-02, -1.84934363e-02, -3.66977565e-02, 0., 0.,
          -2.76479553e-02, -1.64048858e-02, -2.95761190e-02,
          -1.26792425e-02, -8.99443217e-03, -2.46432330e-02,
          -2.41158344e-02, -2.46265493e-02, -3.33139077e-02,
          -1.70361493e-02, -3.78494747e-02, 0., -1.57351494e-02,
          -2.51897182e-02, -3.63454781e-02, -3.40929888e-02,
          -1.67848673e-02, -3.24356072e-02, -2.04804465e-02,
          -3.67904305e-02, -3.96512821e-02, -3.16154249e-02,
          -3.89725827e-02, -1.85920373e-02, -2.61209700e-02,
          -3.16456109e-02, -3.85897122e-02, -3.81724685e-02,
          -1.96816549e-02, -4.13497947e-02, -3.74618508e-02,
          -1.28295766e-02, -3.20284888e-02, -8.39896500e-03,
          -7.43319467e-03, -3.99893001e-02, 0., -7.34827714e-03,
          -1.84741244e-02, 0., 0., 0., 0., 0., -3.49575793e-03, 0., 0.,
          0., 0., 0., 0., 0., 0., 2.00552829e-02, 0., 0., 0., 0., 0., 0.,
          0., 1.35594495e-02, 0., 0., 0., 0., -9.65427514e-03, 0., 0.,
          0., -1.06171155e-02, 0., 0., 0., 0., 0., 0., 0., 0., 0., 0.,
          0., 3.31926299e-03, -1.42244752e-02, 0., 0., 0., 0., 0., 0.,
          -8.54877196e-03, 0., 3.20191011e-02, 0., 0., 1.79697350e-02,
          0., 0., 0., 0., -1.21151097e-02, 0., 2.42994279e-02, 0., 0.,
          0., 0., 0., 0., -3.07488348e-02, 0., 0., 0., 0., 0., 0., 0.,
          9.50922351e-03, 1.47902053e-02, 0., 0., 0., -5.93836559e-03,
          2.77159847e-02, 2.31604874e-02, 6.32735901e-03, 0., 0.,
          -2.02747639e-02, 0., 0., 0., 0., 1.32386833e-02,
          1.02370316e-02, 0., 0., 0., 1.14154164e-02, -2.31911689e-02,
          0., 0., -7.43319467e-03, 0., 0., 0., 0., -4.36642580e-03,
          1.88777298e-02, 0., 0., 0., 0., 0., 0., 0., 2.65413094e-02, 0.,
          0., 0., 1.02377823e-02, 0., 0., -7.31744897e-03,
          2.94505022e-02, 0., 0., 0., 0., 0., 0., 0., 0., 0., 0., 0., 0.,
          0., 2.11800188e-02, 0., 0., 0., 6.08455949e-03, 0., 0., 0., 0.,
          0., 0., 0., 0., 0., 0., 0., 0., 0., 1.93729009e-02, 0., 0., 0.,
          0., 0., 0., -2.21696757e-02, 0., 0., 0., 0., 0., 0.,
          1.37066515e-03, 0., 0., 0., 0., 3.79930530e-03, 0., 0., 0., 0.,
          0., -1.55779775e-02, 2.77140979e-02, 1.65500175e-02,
          -1.61454882e-02, 0., -3.02338302e-02, 0., 0., 0., 0., 0., 0.,
          8.88565648e-03, 0., 1.43355603e-04, 0., 0., 0., 0., 0.,
          1.71409007e-02, 0., -9.58494935e-03, 0., 0., -7.41260778e-03,
          0., -8.52951221e-03, 0., 0., 0., 6.86847512e-03, 0.,
          2.04908550e-02, 0., 0., 0., 0., 0., 0., 1.30782472e-02,
          -1.37760295e-02, 0., 0., 0., 0., 0., 0., 0. ]
      - [ 2.24312901e-01, 2.71197915e-01, 3.16048354e-01,
          -2.29060173e-01, -1.28250355e-02, -2.57445406e-03, 0., 0.,
          5.15903309e-02, 5.15903309e-02, -1.40240431e-01,
          -2.64443159e-01, 0., 0., -6.13029599e-01, 0., -2.12094158e-01,
          0., 0., 0., 0., -1.31223470e-01, 0., 0., -2.12094158e-01,
          1.80898041e-01, -2.41355851e-01, 0., 0., -8.40007365e-02,
          -1.31223470e-01, -1.31223470e-01, 1.45434648e-01, 0., 0., 0.,
          0., 0., -1.16485454e-01, 0., -1.31223470e-01, -3.85521412e-01,
          0., -3.40337962e-01, 0., 0., 5.98697424e-01, 0., 0., 0.,
          4.89164472e-01, 0., -1.16485454e-01, 0., -8.90935734e-02,
          -9.77679312e-01, 0., 0., 0., -1.88323811e-01, 0., 0., 0., 0.,
          0., 0., -3.81387919e-01, 0., 4.01085496e-01, 5.99133894e-02,
          0., 0., 0., 1.59408420e-01, 0., 7.19724715e-01, 8.34984928e-02,
          5.08713499e-02, 0., -1.49602285e-02, -2.52033263e-01, 0., 0.,
          4.89970803e-01, -5.79849519e-02, 1.22608729e-01,
          -3.82206514e-02, 0., 0., -2.23228708e-01, 0., -5.91500640e-01,
          2.94661731e-01, 1.16483741e-01, 0., -1.31223470e-01,
          -1.80880025e-01, 0., 3.67049068e-01, 0., 0., 0., 0.,
          -4.19202931e-02, 0., 0., -3.45128067e-02, 0., 5.85062206e-01,
          0., 0., -3.45128067e-02, 0., 0., -9.63872671e-01, 0., 0., 0.,
          0., 0., -2.87320107e-01, -7.03247488e-01, 0., 0., 0., 0., 0.,
          0., 0., 0., 0., 0., -5.18864281e-02, 2.63450354e-01,
          -2.51611233e-01, 0., 2.99696654e-01, 0., 0., -4.71697241e-01,
          -3.40337962e-01, 5.73530734e-01, 0., 6.01962991e-02,
          -9.01824117e-01, 6.17046356e-01, 0., 0., 0., 3.32283258e-01,
          0., 3.04817349e-01, 0., -2.51611233e-01, 4.80055138e-02,
          2.00915009e-01, 0., 0., 0., -4.49805081e-01, 0., 0., 0., 0.,
          0., -8.51695478e-01, 0., 0., 0., -4.95088905e-01, 0., 0., 0.,
          0., 0., 0., -4.69893068e-01, 0., -4.69893068e-01, 0., 0., 0.,
          -4.69893068e-01, 0., 0., 0., 0., 0., -1.11499868e-01,
          3.42828482e-01, 0., 0., 0., 0., 6.41168535e-01, 0.,
          -2.43982412e-02, 0., -1.38684744e-02, 5.06138764e-02, 0.,
          5.88279784e-01, 0., 0., 0., 0., 0., 0., -7.11490810e-02,
          -1.34992436e-01, 1.62535101e-01, -1.15334064e-01,
          -9.99059752e-02, 0., 0., 0., 0., 2.40134060e-01, 0.,
          5.26365638e-01, 0., 0., 1.00120038e-01, 0., 0.,
          -8.09133872e-02, -1.63428798e-01, 0., 0., 3.55721414e-01, 0.,
          0., 0., 0., 0., 5.06138764e-02, 0., 0., 0., 0., 0., 0., 0.,
          -5.63160777e-01, 0., 0., 0., 9.38973665e-01, 4.94791001e-01,
          1.23454702e+00, 1.40500379e+00, 5.25065839e-01,
          -5.43172397e-02, -4.98063833e-01, -3.72601002e-01,
          8.84267330e-01, 5.43030202e-01, 1.86930895e+00, 0.,
          1.05724776e+00, 0., 1.02789469e-01, 0., 5.17438710e-01, 0.,
          5.89477599e-01, 7.47177839e-01, 3.97387564e-01,
          -1.64731160e-01, -1.46009922e-01, 1.56730235e-01, 0., 0., 0.,
          0., 0., 0., 0., 5.60302027e-02, 0., 1.91070721e-01, 0., 0.,
          2.11030871e-01, 0., 0., 0., -2.51611233e-01, -5.59319854e-02,
          1.44351363e-01, -3.07543218e-01, -6.89527452e-01,
          2.30326414e-01, 5.46530187e-01, 2.58505285e-01, 8.99972320e-02,
          -5.36482036e-01, 1.43766657e-01, 0., 0., 0., 0.,
          -8.09133872e-02, 0., -8.16222653e-02, 9.10965204e-02, 0.,
          7.80865133e-01, -2.19134852e-01, 0., 2.22914323e-01,
          5.86748779e-01, -1.16485454e-01, -1.16485454e-01, 0., 0.,
          -3.09986353e-01, 4.16433401e-02, 0., -5.59319854e-02,
          1.11521520e-01, 0., 0., 0., 0., 0., -1.10330842e-01, 0., 0.,
          3.28275524e-02, 0., 0., 0., -3.50622296e-01, 5.05093299e-02,
          0., 0., 0., -2.43982412e-02, 0., 0., 0., 1.37233555e-01, 0.,
          1., 1.64088100e-01, 0., 4.16433401e-02, 0., 0., 0., 0.,
          -3.62567097e-01, 3.42828482e-01, -4.44757879e-01, 0.,
          -7.22261667e-02, 0., 0., 0., -4.69183207e-01, 0.,
          6.17348969e-01, 0., 0., 0., 0., 0., 0., 4.96487468e-01, 0., 0.,
          0., 0., 0., 0., 0., 0., 0., 0., 1., 0., -2.45432526e-01, 0.,
          -3.45128067e-02, 0., -1.44843653e-01, 0., 0., 0.,
          -9.30198058e-02, 0., 0., -3.66492212e-01, 0., 0., 0., 0.,
          -2.06453514e+00, -1.90460217e+00, 1.26340762e-01,
          -1.62430334e+00, -7.93368816e-01, -1.67080796e+00,
          -1.62097025e+00, -1.45675910e+00, -1.47495139e+00, 0.,
          -1.56288922e+00, -2.02843261e+00, -1.60883164e+00,
          -2.12109756e+00, -1., -1.20818543e+00, -6.13029599e-01, 0.,
          -9.43628773e-02, -1.27064586e-01, -1.03413320e+00, 0., 0.,
          -4.22312558e-01, 6.47418797e-02, -8.19832563e-01,
          -3.30228396e-02, -7.67934322e-01, -4.29411262e-01, 0., 0., 0.,
          0., 0., -4.39545006e-01, -4.19516683e-01, -3.34734797e-01,
          -1.32620752e-01, -4.92563844e-01, -3.53834659e-01,
          -5.63425899e-01, -6.10601783e-01, -7.57230580e-01,
          -7.40145206e-01, -3.95051569e-01, 0., -7.37825215e-01, 0., 0.,
          -6.43534482e-01, 0., -1.76265791e-01, -4.82489556e-01, 0., 0.,
          -4.71119732e-01, -7.38426208e-01, -6.60506845e-01,
          -5.94124377e-01, -5.31142235e-01, -5.28649569e-01, 0., 0.,
          -6.44278586e-01, -3.09986353e-01, -8.45205784e-01,
          -7.25042582e-01, -1.47215456e-01, -6.95772827e-01,
          -8.02972674e-01, 0., 0., 0., -7.61017680e-01, -4.09166873e-01,
          -2.61186928e-01, -5.68620801e-01, 0., -7.23454237e-01,
          -5.58986664e-01, -1., -5.11793375e-01, -6.04070842e-01,
          -2.97357321e-01, -9.10002768e-01, -5.37467420e-01, 0.,
          1.13128543e-01, 0., 0., 0., 0., 0., 0., 0., 0.,
          -9.43628773e-02, 0., -5.27162254e-01, 0., -1., 0., 0., 0., 0.,
          4.74533439e-01, 0., 0., 0., 0., 0., 0., 0., -1., 0., 0., 0.,
          -9.25776213e-02, -5.11793375e-01, 0., 0., -4.54210311e-01, 0.,
          0., 0., 0., 0., 0., 0., 0., -5.61123550e-01, 0., 0.,
          9.20426428e-01, 1.72228053e-01, 1.72228053e-01, 0., 0.,
          8.77783224e-02, 6.29404902e-01, 2.42397502e-01, 5.07718384e-01,
          0., 0., 0., 0., 0., 0., 0., 0., 0., 5.05093299e-02,
          6.29404902e-01, 4.58603278e-02, 0., 0., 0., 5.39150000e-01, 0.,
          0., 8.77783224e-02, 2.42397502e-01, 8.90717432e-02, 0., 0., 0.,
          0., 0., 0., 0., 0., 0., 5.05093299e-02, 0., 0., 5.88957191e-01,
          0., 0., 0., 0., 0., 0., 0., 0., 5.88957191e-01, 1.74509510e-01,
          0., 0. ]
      - [ 0., 0., 6.97323994e-04, 5.66142728e-04, 5.54669590e-04,
          5.54669590e-04, 0., 0., 0., 0., 0., 0., 0., 0., 0., 0.,
          7.87379802e-04, 0., 0., 0., 0., 0., 0., 0., 0., 5.67867974e-05,
          0., 1.67864506e-04, 0., 0., 0., 0., -4.39365744e-04, 0., 0.,
          0., 0., 0., 0., -2.69223587e-04, 0., -2.47020052e-05, 0., 0.,
          0., 0., 0., 0., 0., -6.17070938e-04, -1.68605533e-04, 0.,
          -5.58111817e-04, 0., 0., 0., 0., 0., 0., 0., 0.,
          -2.39391840e-16, 0., 0., 0., 0., 0., 0., 8.45154896e-02, 0.,
          0., 0., 0., 0., 0., 0., 1.86434889e-04, 4.22275513e-01, 0.,
          -1.90852763e-04, 0., 0., 0., -4.12103051e-04, -1.03112077e-04,
          -2.74353311e-04, 0., 0., 0., 0., 0., 0., -2.95530801e-04, 0.,
          0., 0., 0., 0., -6.24778215e-04, 0., 0., 0., 0.,
          -2.85836606e-04, 0., 0., -2.64690694e-04, 0., -7.41515891e-04,
          -1.13917580e-04, -1.13917580e-04, 0., 0., -1.26862928e-04, 0.,
          0., 0., 0., 0., 0., 0., -3.27921211e-04, 0., 0., 0., 0., 0.,
          0., 0., 0., 0., 0., 0., 0., 8.45154896e-02, 0., 0., 0., 0., 0.,
          0., 0., 0., 0., 0., 8.45154896e-02, 0., 0., 0., 0., 0., 0., 0.,
          0., 0., 0., 0., 0., 0., 0., 0., 0., 0., 0., 0., 0., 0., 0., 0.,
          4.47276863e-04, 0., 0., 0., 0., 0., 0., 0., 0., 0., 0., 0., 0.,
          0., 0., 0., 0., 0., 0., 0., 0., 0., 0., 0., 0., 0., 0.,
          6.35177421e-05, 0., 1.17749179e-04, 5.42314447e-05, 0., 0., 0.,
          0., 0., 0., 0., 6.35177421e-05, 0., 0., 5.42314447e-05, 0., 0.,
          0., 0., 0., 0., 0., 0., 6.85618608e-04, 0., 0., 5.42314447e-05,
          0., 0., 0., 0., 0., 0., 7.04617202e-02, 0., 0., 0., 0., 0.,
          5.42314447e-05, 0., 0., 0., 0., 0., 0., 0., 0., 0., 0., 0.,
          1.99983823e+00, 1.99981165e+00, 2.00002313e+00, 1.99973595e+00,
          1.99947166e+00, 0., 1.63916047e-04, 6.65254949e-04,
          1.99983346e+00, 1.99941730e+00, 1.99984193e+00, 1.99975216e+00,
          1.99982047e+00, 0., 1.57725275e+00, 8.45154896e-02,
          1.99947274e+00, 0., 1.24993742e+00, 1.99940121e+00,
          1.99948633e+00, 1.99976170e+00, 2.49937385e-01, 5.05121761e-06,
          0., 0., 0., 0., 0., 0., 0., 0., 0., 0., 0., 0., 5.05121761e-06,
          0., 0., 0., 0., 0., 0., 0., 2.41916059e-04, 2.99029518e-04,
          9.78230848e-04, 2.49937385e-01, 0., 0., 3.91222304e-04, 0., 0.,
          0., 0., 0., 0., 4.84735705e-04, 5.72940044e-04, 0., 0.,
          1.86434889e-04, 0., 0., 0., 0., 0., 0., 0., 0., 0., 0.,
          1.80455318e-04, 1.80455318e-04, 0., 0., 0., 0., 0., 0., 0., 0.,
          0., 0., 0., 0., 0., 0., 0., 0., 0., 0., 0., 0., 0., 0., 0., 0.,
          0., 0., 0., 0., 0., 0., 0., 0., 0., 0., 0., 0., 0., 0., 0.,
          7.04617202e-02, 0., 0., 0., 0., 0., 0., 0., 0., 0., 0., 0., 0.,
          0., 0., 0., 0., 0., 0., 0., 0., 0., 0., 0., 0., 0., 0., 0., 0.,
          0., 0., 0., 0., 0., 0., 0., 0., 0., 0., 0., 0., 0., 0., 0., 0.,
          0., 0., 0., 0., 0., 0., 9.78230848e-04, 0., 0., 0., 0., 0., 0.,
          7.04617202e-02, 0., 0., 0., 0., 0., 0., 0., 0., 0., 0., 0., 0.,
          0., 0., 7.04617202e-02, 0., 5.42314447e-05, 0., 0.,
          7.04617202e-02, 0., 5.82517358e-04, 1.04523939e-03, 0., 0., 0.,
          0., 0., 5.05121761e-06, 0., 8.45154896e-02, 0., 0., 0., 0.,
          7.04617202e-02, 5.01384551e-04, 0., 0., 0., 0., 0., 0., 0.,
          2.49937385e-01, 0., 0., 0., 0., 0., 0., 0., 5.42314447e-05,
          5.01384551e-04, 0., 0., 0., 6.08938222e-04, 0., 0., 0., 0., 0.,
          0., 0., 0., 0., 0., 0., 0., 0., 0., 0., 0., 0., 0., 0., 0., 0.,
          0., 0., 0., 0., 0., 0., 0., 0., 0., 0., 0., 0., 0., 0., 0., 0.,
          0., 0., 0., 0., 0., 0., 0., 0., 0., 0., 0., 0., 0., 0., 0., 0.,
          0., 2.99029518e-04, 0., 0., 0., 0., 0., 0., 0., 1.80455318e-04,
          0., 0., 0., 0., 0., 0., 0., 0., 0., 0., 2.99029518e-04, 0., 0.,
          0., 0., 0., 0., 0., 0., 0., 0., 0., 0., 0., 0., 0., 0., 0., 0.,
          0., 0., 0., 0., 0., 0., 0., 0., 0., 0., 0., 0., 0., 0., 0., 0.,
          0. ]
      - [ 0., 3.23526114e-02, 1., 0., 0., 2.40500227e-01, 0., 0., 0., 0.,
          0., 0., 0., 0., 0., 0., 0., 0., 0., 0., 0., 0., 0., 0., 0.,
          3.02595198e-01, 0., 0., 0., 0., 6.85683414e-02, 0.,
          2.89870679e-01, 0., 0., 0., 0., 5.59341609e-02, 2.62925476e-02,
          4.02887212e-03, 0., 5.32718748e-02, 0., 0., 0., 0.,
          3.05203438e-01, 0., 0., 0., -3.85599732e-01, 0.,
          7.69440308e-02, -1.92301318e-01, 0., 0., 2.69594751e-02, 0.,
          0., -1.85229946e-02, -1.85229946e-02, -2.37957090e-01, 0., 0.,
          0., 0., 1., 5.51276088e-01, 2.95078039e+00, 1.96437681e+00, 0.,
          0., 0., 7.99003839e-02, 0., 1., 1., 2.88040161e+00, 0.,
          8.13045353e-02, 6.46643993e-03, 0., 0., -4.19480175e-01,
          3.11695278e-01, 1.78679839e-01, 0., 0., 0., 5.80428429e-02, 0.,
          1.43352812e-02, -3.94519698e-03, -1.79266110e-02, 0., 0., 0.,
          0., 1.92148149e-01, 0., 0., 0., 0., 7.84160048e-02, 0., 0., 0.,
          0., 2.02613235e-01, 2.01189712e-01, 2.01189712e-01, 0., 0.,
          2.55083710e-01, 0., 0., 0., 0., 0., 0., 0., 0., 0., 0., 0., 0.,
          0., 0., 0., 0., 0., 0., 4.94510949e-01, 0., 0., 0.,
          4.56727389e-03, 0., 0., 0., 0., 0., 0., 0., 0., 1.12452686e+00,
          0., 0., 0., 1.51351130e+00, 0., 3.16675037e-01, 2.04002056e-02,
          0., 1.24526881e-01, 0., 0., 0., 0., 0., 0., 0., 0., 0., 0.,
          5.19089289e-02, 0., 0., 0., 0., 0., 0., 0., 0., 0., 0., 0., 0.,
          0., 0., 0., 0., 0., 0., 0., 0., 0., 0., 0., 0., 0., 0., 0., 0.,
          0., 0., 0., 0., 0., 0., 0., 7.00399280e-01, 0., 0., 0., 0., 0.,
          0., 0., 0., 2.01170426e-02, 0., 0., 0., 0., 0., 0.,
          7.00399280e-01, 0., 0., 0., 0., 1.92148149e-01, 0., 0., 0., 0.,
          0., 0., 3.22186500e-02, 0., 0., 0., 0., 0., 0., 0., 0., 0., 0.,
          0., 0., 0., 0., 0., 0., 0., 7.35942185e-01, 7.41652191e-01,
          7.47887492e-01, 7.41082132e-01, 7.35374093e-01, 1.08994087e-02,
          1.56271067e-02, 1.42011032e-01, 7.40452349e-01, 7.28475630e-01,
          7.22884119e-01, 7.40613997e-01, 7.26880014e-01, 0.,
          2.90285707e-01, 0., 7.25253999e-01, 0., 3.98170352e-01,
          7.38163352e-01, 7.57745266e-01, 7.45338321e-01, 1.40103281e-01,
          2.51221862e-02, 0., 0., 0., 0., 0., 0., 0., 0., 0., 0., 0., 0.,
          2.51221862e-02, 0., 0., 0., 0., 0., 0., 0., 7.22174346e-02,
          8.82627890e-02, 4.44773972e-01, 8.91159698e-02, 9.62692723e-02,
          6.31780028e-02, 3.02200139e-01, 0., 0., 0., 0., 0., 0.,
          5.66195510e-02, 4.27592337e-01, 0., -3.39607060e-01,
          3.80630139e-04, 9.19158608e-02, 3.69691968e-01, 6.86896294e-02,
          0., 0., 0., 0., 0., 3.78875509e-02, 0., 0., 6.99938238e-02, 0.,
          0., 0., 0., 0., 0., 0., 0., 1.28641576e-01, 0., 0.,
          1.10088229e-01, 0., 5.88091671e-01, 0., 0., 0., 0., 0., 0., 0.,
          0., 0., 6.99938238e-02, 8.46652210e-01, 0., 3.78875509e-02, 0.,
          4.05172482e-02, -1.67681370e-02, 0., 0., 7.89791197e-02, 0.,
          -3.03276688e-01, -3.03276688e-01, -3.03276688e-01, 0., 0.,
          -2.55368292e-01, 0., 0., 0., 0., 0., 0., 0., 0.,
          -3.88944671e-02, 0., 0., 0., 0., 0., -3.88944671e-02, 0.,
          -4.01333869e-02, 0., 0., 0., 1.28641576e-01, -7.52254725e-01,
          0., 0., 0., 0., 0., 0., 0., 0., 0., 0., 0., 0., 0., 0.,
          -3.03276688e-01, -1.93764389e+00, -1.91843641e+00,
          2.85835147e-01, -1.90454280e+00, 0., -1.92996788e+00,
          -1.29763234e+00, -1.92405677e+00, -1.71373105e+00, -1.,
          -1.54364300e+00, -1.57323611e+00, -1.59855449e+00,
          -1.92108965e+00, -1.24037075e+00, -1.17650557e+00,
          -1.26180410e+00, -4.57822740e-01, -1.17229211e+00,
          -1.20188308e+00, 4.68054973e-02, 0., 0., 0., 0., 0., 0.,
          1.45868501e-02, 0., 0., 0., 0., 0., 0., 0., 3.22186500e-02,
          1.45868501e-02, 0., 0., 0., 3.22186500e-02, 0., 1.04009785e-01,
          6.02346472e-02, 0., 0., 0., 0., 4.35042419e-02, 2.51221862e-02,
          0., 5.19089289e-02, 0., 0., 0., 1.69121288e-02, 3.25808585e-01,
          0., 0., 0., 0., 0., 4.35042419e-02, 0., 4.35042419e-02,
          1.54690132e-01, 0., 0., 0., 6.79282919e-02, 0., 0., 0., 0., 0.,
          0., 0., 0., 0., 0., 0., 0., 0., 0., 0., 0., 0., 0., 0., 0., 0.,
          5.72553230e-03, 0., 0., 0., 0., 1.92148149e-01, 0., 0., 0.,
          6.99938238e-02, 0., 0., 0., 0., 0., 0., 0., 0., 0., 0., 0., 0.,
          0., 0., 0., 0., 0., 0., 0., 0., 0., 0., 0., 0., 0., 0., 0., 0.,
          0., 0., 0., 0., -3.14908251e-02, 3.11440080e-01,
          3.67015332e-01, 0., 0., 0., 7.63136297e-02, 2.09171876e-01, 0.,
          0., 0., 2.15180442e-01, 0., 0., -4.97091599e-02, 0., 0., 0.,
          -5.32131977e-02, 4.70336437e-01, 0., 0., -2.55908251e-01, 0.,
          2.50487626e-01, 0., -6.70348704e-02, 0., 1.23596877e-01, 0.,
          0., -1.04396224e-01, 0., -7.03078508e-02, 0., 0., 0., 0.,
          -2.49925908e-02, -1.87885817e-02, 0., 0., 3.56340110e-01, 0.,
          0., 0., 0., 0., 0., 0., 0., 6.75968170e-01, -1.53347775e-01,
          0., 0. ]
      - [ 3.28411534e-02, 2.20034838e-01, 3.38880084e-02, 2.30752937e-02,
          -1.70630254e-02, 7.54512846e-03, 0., 0., 0., 0., 0., 0., 0.,
          0., 0., 0., 1., 0., 0., 0., 0., 0., 0., 0., 0., 3.52109559e-02,
          0., 0., 0., 0., 0., 0., 0., 0., 0., 0., 0., 0., 0.,
          9.22309887e-03, 0., 0., 0., 0., 0., 0., 0., 0., 0., 0., 0., 0.,
          0., 0., 0., 0., 0., 0., 0., 0., 0., 0., 0., 0., 0., 0.,
          2.57722922e-02, 0., 1.41685441e-01, 0., 0., 0., 0.,
          9.92236733e-01, 0., 9.92236733e-01, 0., 7.59239614e-01, 0.,
          9.15693492e-03, 0., 0., 0., -2.85675749e-02, 5.03670424e-03,
          1.64450854e-02, 0., 0., 0., 7.94313755e-03, 0., 0.,
          2.08753478e-02, -3.09507437e-02, 0., 0., 0., 0.,
          8.17700010e-03, 0., 0., -4.55778316e-02, 0., 6.06862176e-03,
          0., 0., 0., 0., 1.22938827e-02, 4.32902714e-03, 4.32902714e-03,
          0., 0., -2.15261597e-02, 0., 0., 0., -2.20129490e-01, 0., 0.,
          -2.37904042e-02, -3.60224545e-02, 0., 0., 0., 0., 0., 0., 0.,
          0., 0., 0., 3.87748666e-02, 0., -1.90452978e-01, 0.,
          2.73741838e-02, 0., 0., 0., 6.03109479e-01, 6.03109479e-01, 0.,
          9.22309887e-03, 5.54724455e-01, 2.66936496e-02, 0., 0., 0.,
          7.76246965e-01, 0., 0., 0., 0., 0., 0., 0., 0., 0., 0., 0., 0.,
          0., 0., 0., 3.62936221e-02, 0., 0., 0., 0., 0., 0., 0., 0., 0.,
          0., 0., 0., 0., 0., 0., 0., 0., 0., 1.73137456e-01, 0., 0., 0.,
          0., 7.74179459e-01, 0., 0., 0., 0., 5.23138106e-01, 0., 0., 0.,
          1.04950592e-02, 1.04950592e-02, 0., 0., 0., 0., 0., 0., 0., 0.,
          0., 0., 1.04950592e-02, 0., -4.57608216e-02, 0., 0., 0., 0.,
          1.84454843e-01, 0., 0., 0., 0., -1.95317399e-02, 0., 0., 0.,
          0., 0., 0., 8.59261632e-01, 0., 0., 0., 0., 0., 1.04950592e-02,
          0., 0., 0., 0., 0., 0., 0., 9.07550659e-03, 0., 0.,
          3.67355257e-01, 1.24186456e+00, 1.23913884e+00, 1.26316357e+00,
          1.26246572e+00, 1.26899374e+00, -2.07987614e-02,
          -6.22215448e-03, 3.77931334e-02, 1.28144777e+00,
          1.24193788e+00, 1.25903523e+00, 1.24454451e+00, 1.25066066e+00,
          0., 1.24175215e+00, 5.22830486e-02, 1.82299221e+00, 0.,
          1.12096381e+00, 1.24316585e+00, 1.23767710e+00, 1.21807289e+00,
          3.08837965e-02, 0., 0., 0., 0., 0., 0., -3.14743631e-02, 0.,
          0., 0., 1.14521580e-02, 0., 0., 0., 0., 0., 0., 0., 0.,
          1.35552473e-02, 0., 3.34996313e-01, 3.50341439e-01,
          -2.01211553e-02, 1.20963812e-01, 0., 6.90203980e-02, 1., 0.,
          1., 0., 0., 0., 0., 2.08730027e-01, 1.61975533e-01, 0., 0.,
          5.43572485e-01, -6.23557437e-03, 0., 0., 0., 0., 0., 0., 0.,
          1.32358195e-02, 0., 1.97707079e-02, 1.97707079e-02, 0., 0., 0.,
          0., 0., 0., 0., 0., 1., 0., 0., 0., 0., 3.67355257e-01, 0., 0.,
          0., 0., 0., 0., 0., 7.59644270e-01, 0., 0., 0., 0.,
          1.32358195e-02, 0., 0., 0., 0., 0., 0., 5.43572485e-01,
          -7.56422997e-01, -1.49776268e+00, 0., -8.14274132e-01, 0.,
          -1.09288323e+00, 0., -1., 0., 0., 0., 0., 0., -7.35057116e-01,
          -9.32928205e-01, -7.42989540e-01, 0., -1.26043570e+00,
          -7.39816368e-01, -7.41833985e-01, -7.33595490e-01,
          -7.37994790e-01, -8.00828993e-01, 0., -7.73927689e-01,
          -8.65885437e-01, -7.43338168e-01, -1.97277164e+00, 0.,
          -1.64084721e+00, 0., -2.00398755e+00, -7.37978518e-01,
          -7.34769762e-01, 0., -2.00364876e+00, -7.61769712e-01,
          -7.27957666e-01, -8.95022571e-01, -8.49606454e-01,
          -7.32994020e-01, -1.97983313e+00, 0., 5.23138106e-01,
          7.47441053e-02, -1.13504743e-02, 0., 0., 0., 8.60945806e-02,
          0., 0., 0., 0., -2.94691980e-01, 0., 1.50041014e-01, 0., 0.,
          0., 0., 0., 0., 1.94714479e-02, -3.62973870e-03,
          1.61074381e-02, -3.62973870e-03, 0., 1.42641691e-02, 0.,
          2.84656920e-02, 0., 0., 0., 0., 0., 0., 0., 2.20636621e-01,
          -1.97056886e-02, 1.04950592e-02, 0., 0., -2.60691494e-02,
          1.70635264e-02, 6.50098361e-03, -5.89371426e-03,
          7.45624974e-02, 0., 2.66111456e-03, 0., 2.14942154e-02,
          2.69612707e-02, 0., -2.16031913e-02, 0., 0., 0., 0.,
          -5.40117675e-04, -1.10861259e-02, 0., 0., 1.69806257e-02, 0.,
          3.14307516e-03, 2.20919307e-02, 2.14942154e-02,
          -1.17932893e-02, 1.43967271e-01, 0., -1.42707617e-03,
          8.86447076e-03, 0., 0., 0., -2.99184974e-02, 1.80342440e-02,
          -1.83511395e-02, 0., 0., 4.41035517e-02, 0., -1.03676664e-02,
          0., -2.49130875e-01, 0., 0., 0., 0., 9.22309887e-03, 0., 0.,
          0., 0., 0., 0., 0., 0., -9.41379070e-02, 0., -7.52735853e-01,
          0., -7.77780235e-01, 0., 0., 0., 0., -1.13504743e-02, 0.,
          -3.70311707e-01, 0., 0., 0., 0., -4.07474726e-01, 0.,
          -4.02991444e-01, 0., 0., 0., -8.38910222e-01, 0., 0.,
          -3.88829887e-01, 0., -6.23557437e-03, -2.13628542e-02, 0., 0.,
          0., 0., 0., 0., 0., -6.94698691e-02, 4.01903033e-01, 0., 0.,
          0., 0., 0., 0., 0., 0., 0., 0., 0., 0., 0., 0., 0., 0., 0., 0.,
          0., 0., 0., 0., 0., 0., 0., 0., 0., 0., 4.01903033e-01, 0., 0.,
          0., 0., 0., 0., 0., 0., 0., 0., 0., 0., 0., 0., 0., 0., 0., 0.,
          0., 0., 0., 0., 0., 0., 0. ]
      - [ 0., 5.82403839e-02, 1.21594347e-01, 2.55311392e-02,
          -9.51679945e-02, 2.46813983e-01, 0., 3.31197709e-01,
          9.74628404e-02, 9.74628404e-02, 0., 2.74550796e-01, 0., 0.,
          -1., 0., 5.32776296e-01, 0., 0., 3.93988267e-02, 0., 0., 0.,
          0., 0., 4.31975156e-01, 0., 2.38086104e-01, 0., 0.,
          2.89679728e-02, 0., 1.60426036e-01, 0., 0., 0., 0., 0.,
          1.68910637e-01, 2.78594624e-02, 0., 1.64064050e-01, 0., 0., 0.,
          -9.02537167e-01, -2.32154876e-01, -2.32154876e-01,
          -3.66374075e-01, 1., -5.79968542e-02, 0., -4.57166582e-01, 0.,
          -1., 1.96294218e-01, 1.89877495e-01, 0., 0., 5.45707703e-01,
          -4.87566069e-02, 0., 0., 0., 0., 0., -1.53792456e-01,
          3.39780822e-02, 6.74112916e-01, -1.71183869e-01, 0., 0., 0.,
          1.42793983e-01, 0., 3.95723432e-01, 5.26902974e-02,
          6.47796154e-01, 2.95861751e-01, 1.60283625e-01, 2.79431581e-01,
          0., 0., -2.57319838e-01, 1.12393253e-01, 3.09048176e-01, 0.,
          0., 0., -1.28141940e-01, 0., 0., -1.02359280e-02,
          -1.20725304e-01, 0., 1.89877495e-01, 0., 8.69464576e-01,
          -4.56630558e-01, -7.54919112e-01, 0., -2.07930103e-01,
          -1.97790340e-01, 2.35712361e-02, 0., 0., 0., -4.87566069e-02,
          1.38976127e-01, -9.40482467e-02, -9.40482467e-02, 0., 0., 0.,
          0., 0., 0., 0., 0., 0., 0., 0., 0., 0., 0., 0., 0., 0., 0., 0.,
          0., 0., 3.39689761e-01, 0., 0., 0., 0., 0., 0., 0.,
          4.05086219e-01, 0., 0., 0., 0., 6.98744893e-01, 0., 0.,
          2.96942472e-01, 3.13217998e-01, 0., 0., 0., 4.47154820e-01,
          4.05086219e-01, 2.48185858e-01, 0., 0., 0., 0., 0., 0., 0., 0.,
          0., 5.08894384e-01, 0., 0., 0., 0., 0., 0., 0., 0., 0., 0., 0.,
          0., 0., 0., 0., 0., 0., 0., 5.58458388e-01, 2.93065071e-01, 0.,
          0., 0., 0., 0., 0., 0., 0., 0., 0., 6.63170591e-02, 0.,
          6.63170591e-02, 0., 0., 0., 1., 0., 0., 0., 0., 6.63170591e-02,
          2.96942472e-01, 0., 2.96942472e-01, 0., 0., 0., 0., 0., 0., 0.,
          0., 1., 0., 0., 6.54132366e-01, 0., 0., -1., 0., 0., 0.,
          5.90498559e-02, 0., 0., 0., 0., 0., 0., 0., 0., 0., 0., 0., 0.,
          0., 0., 0., 0., 0., 1.70111763e+00, 2.01759028e+00,
          1.74220824e+00, 1.68803692e+00, 1.76033199e+00,
          -2.35902630e-02, 9.53061283e-02, 2.12807551e-01,
          1.83905065e+00, 1.69241750e+00, 1.79323590e+00, 1.80364943e+00,
          1.72081387e+00, -2.64580309e-01, 1.02135444e+00,
          -4.41541582e-01, 1.71813703e+00, 0., 8.37135673e-01,
          1.72472644e+00, 1.72354138e+00, 1.40123057e+00, 2.68070787e-01,
          2.00136900e-01, 0., 0., 0., 0., 0., 0., 0., 0., 0., 0., 0., 0.,
          1.31294265e-01, 0., 0., 0., 0., 0., 2.45026052e-01, 0.,
          2.44249076e-01, 5.22835493e-01, 9.23678428e-02, 4.95960146e-01,
          1.28831136e+00, 5.76860011e-02, 7.82126307e-01, 0., 0., 0., 0.,
          -5.23745835e-01, 0., 1.09547406e-01, 6.45656765e-01,
          -9.97900218e-02, 6.92394227e-02, 2.60970712e-01,
          3.55565727e-01, -3.93601626e-01, 1.13764808e-01,
          3.36135268e-01, -5.28536499e-01, 0., 0., 0., 6.41100407e-02,
          0., 6.31676137e-01, 6.31676137e-01, 0., 0., 0., 0., 0., 0., 0.,
          1., 3.12362462e-01, 0., 0., 9.72462237e-01, 0., 1., 0.,
          -8.19607556e-01, -2.62654334e-01, 0., 2.27731776e+00, 0., 0.,
          1.78883020e-02, 0., 0., 3.74795385e-02, 0., 3.63958031e-01, 0.,
          0., 1.80392414e-01, 0., 0., 1.13764808e-01, 1.91731289e-01, 0.,
          0., 0., 0., 0., -4.36856389e-01, 0., 0., 0., 0., 0., 0., 0.,
          0., -9.18371499e-01, 0., 0., 0., 0., 0., 0., 0.,
          -1.15916189e-02, 0., 0., 0., 3.12362462e-01, -6.63864732e-01,
          0., -1.15114427e+00, 0., -5.01753211e-01, -2.69317985e-01, 0.,
          0., 0., 0., 0., 0., 0., 0., 0., 0., 1., 4.14591849e-01, 0., 0.,
          0., 1.14490438e+00, 1., 0., 5.72986245e-01, 0., 1., 0., 1.,
          1.31662166e+00, 0., 0., 0., 0., 0., 0., 2.49828264e-01, 0.,
          1.90778404e-01, 0., 0., 0., 0., 0., 0., 0., 0., 0., 0., 0., 0.,
          5.90498559e-02, 0., 0., 9.74687785e-02, 0., 1.47804379e-01, 0.,
          1.67965204e-01, 5.99954009e-01, 0., 0., 9.53211114e-02, 0.,
          1.15784623e-01, 2.00136900e-01, 0., 0., 0., 0., 0.,
          9.44895223e-02, 1.88894168e-01, 1.12830333e-01, 0., 0., 0., 0.,
          1.15784623e-01, 0., 1.15784623e-01, 3.09063047e-01,
          4.04990554e-01, 0., 3.12827259e-01, 0., 0., 0., 0., 0.,
          9.74687785e-02, 0., 0., 0., 7.50330091e-02, 0., 0., 0., 0., 0.,
          0., 0., 0., 9.38460380e-02, 0., 0., 0., 0., 0., 0., 0., 0., 0.,
          0., 0., 0., 1.07424788e-01, 0., 0., 0., 0., 0., 0., 0., 0., 0.,
          0., 0., 0., 0., 4.03079763e-02, 0., 0., 0., 0., 0., 0., 0., 0.,
          0., 0., 0., 0., 0., 0., 0., 0., 0., 1.35735407e-01,
          -1.70514083e+00, -5.85408151e-01, -6.75747514e-01, -1.,
          -5.01901150e-01, -1., -1.64784551e+00, -3.78408134e-01,
          -1.81723392e+00, -7.80208230e-01, 0., -2.54836798e-01,
          -4.87566069e-02, 0., -9.75701988e-01, -2.51377851e-01,
          -6.46528900e-01, 3.42160314e-01, -1.65709925e+00,
          -6.70936346e-01, -1.23797727e+00, -2.06179515e-01, 0.,
          -1.07424788e-01, -6.84352160e-01, 0., -1.69903636e+00, -1.,
          -9.07250464e-01, -6.80013061e-01, 0., -6.03437424e-01, 0.,
          -1.23372889e+00, -6.88426420e-02, -1.27251661e+00,
          -1.72768521e+00, -3.45916331e-01, -7.05346346e-01,
          -3.01477630e-02, 0., -2.34691985e-02, -6.99204206e-01,
          4.77620820e-03, -1., -5.39231300e-01, -1.16017163e-01,
          -8.58512282e-01, 0., 0., 0., 1.44904330e-01, -1.64455783e+00,
          0., -1.49200308e+00 ]
      - [ 0., 1., 5.75286627e-01, 1., 7.58033872e-01, 1.75803387e+00, 0.,
          0., 9.83157977e-02, 9.83157977e-02, 0., 1., 0., 0., 0., 0.,
          5.99124610e-01, 0., 0., 0., 0., 0., 0., 0., 0., 9.23081264e-02,
          -6.10010028e-01, 3.02498460e-01, 0., 0., 1.97654918e-01, 0.,
          3.89990002e-01, 0., 0., 0., 0., 1.42842695e-01,
          -1.02780253e-01, 1.72488227e-01, 0., 4.92645860e-01, 0., 0.,
          0., 0., -3.65545191e-02, 0., -1.68948278e-01, 0., 0., 0.,
          -1.58638015e-01, 0., 0., 0., 2.99697042e-01, 0., 0., 0., 0.,
          0., 0., 0., 0., 0., 6.97990239e-01, 2.22495452e-01,
          9.31392729e-01, 1., 0., 0., 0., 3.96588057e-01, 0.,
          3.12172204e-01, 2.63112992e-01, 8.82153034e-01, 0.,
          4.28188384e-01, 0., 0., -6.49462879e-01, 2.09327310e-01,
          5.55885196e-01, 2.77852863e-01, 0., 0., 0., 2.66058296e-01, 0.,
          1.13787726e-01, -9.36215371e-02, 2.88601071e-01,
          4.39254977e-02, 0., 0., 0., -1.67710751e-01, -1., 0., -1., 0.,
          1.07240438e-01, 0., 0., 1.76612344e-02, 0., 1.01845890e-01,
          9.01878625e-02, 9.01878625e-02, 4.66131657e-01, 0.,
          1.16391458e-01, 0., 0., 0., 0., 0., 0., 0., -3.96504551e-01,
          0., 0., -7.35979155e-03, 0., 0., 0., 0., 0., 0., 0.,
          4.99983251e-01, -4.28956389e-01, -1.57991779e+00,
          -3.56569260e-01, -6.01743460e-01, -7.35979155e-03, 0.,
          -6.76755071e-01, -1.18638289e+00, -3.94210339e-01,
          -1.45165014e+00, -1.50439358e+00, -1.48961604e+00,
          -8.11981678e-01, -5.47099769e-01, 0., -1.21906126e+00,
          -1.38155854e+00, 0., -8.36258113e-01, -9.52463627e-01,
          -1.25565779e+00, -6.48252606e-01, -1., -4.16141450e-01,
          -1.43126380e+00, 0., -1.36549652e+00, 0., -2.58923262e-01,
          -4.82569158e-01, 0., -4.94397610e-01, -1.26825380e+00,
          -3.50931823e-01, -5.34561455e-01, -8.51520360e-01,
          -8.89255404e-01, -8.83608520e-01, -9.02733862e-01, 0.,
          -4.82988596e-01, 0., 0., -5.31346202e-01, -1.09344411e+00,
          -1.23500705e+00, -3.96751225e-01, -4.29902494e-01, 0.,
          -3.20917279e-01, 0., -8.12642455e-01, -6.47607744e-01,
          -3.12099963e-01, -1., -6.48170650e-01, -7.43735731e-01,
          -7.85958409e-01, -3.85496676e-01, 0., 0., 3.24770749e-01,
          -6.83028281e-01, 6.36656165e-01, -1., -1.10510933e+00,
          9.41262782e-01, -4.11148489e-01, -5.83866835e-01,
          6.85413033e-02, -3.99868339e-01, -5.04605889e-01, 0., -1., 0.,
          -3.36552680e-01, -4.88818645e-01, -6.88406646e-01,
          -9.10049558e-01, -1.44199169e+00, -1.92764457e-02,
          -4.73579586e-01, 0., 0., -8.45203638e-01, -1.42779160e+00,
          -4.10208017e-01, 0., 0., -8.18787634e-01, -1., 0.,
          -1.49521053e+00, -6.43647969e-01, -4.82264370e-01,
          -5.50144255e-01, -1.34203732e+00, -1., 0., -1., -1., 0., -1.,
          -8.06091785e-01, -3.23845297e-01, 0., -5.76853216e-01, -2.,
          -5.19386292e-01, -2.07071200e-01, -4.80047554e-01,
          -1.42268312e+00, -1.30200982e+00, -4.49643373e-01,
          2.06688142e+00, 2.14805150e+00, 1.97813761e+00, 2.10686445e+00,
          2.04933667e+00, 4.63676937e-02, 8.89155045e-02, 0.,
          2.16150618e+00, 2.06669092e+00, 2.24019408e+00, 2.,
          2.05938101e+00, 0., 1.99198341e+00, 4.99457538e-01,
          2.06676555e+00, 0., 1., 2.10615325e+00, 2.22906232e+00,
          1.94131863e+00, 0., 0., 0., 0., 0., 0., 0., 0., 0., 0., 0., 0.,
          0., 0., 0., 0., 0., 0., 0., 0., 0., 0., 4.25590992e-01,
          5.78450918e-01, 1.24396884e+00, 5.45346081e-01, 6.57557309e-01,
          6.37697816e-01, 4.50750202e-01, 0., 0., 0., 0., 0., 0.,
          1.13787726e-01, 4.39199775e-01, -7.16503933e-02,
          2.29030773e-01, 2.29030773e-01, 2.50392288e-01, 0.,
          8.22534263e-01, 0., -4.05598104e-01, 0., 0., 0.,
          -1.69749260e-01, 0., 3.25278461e-01, -2.31132165e-01, 0.,
          2.14210615e-01, 0., 0., 0., 0., 0., 0., 4.49688375e-01, 0., 0.,
          5.85157335e-01, 0., 6.38566971e-01, 0., 0., 7.54322633e-02, 0.,
          8.19382966e-01, 0., 0., 7.37399340e-01, 0., 0., 2.09069312e-01,
          0., 6.16040111e-01, 0., 7.69420505e-01, -4.00332540e-01, 0.,
          0., 0., 0., 3.10062200e-01, 0., 0., 0., 0., -3.36100996e-01,
          0., 0., 0., 0., 0., 0., 0., 0., -1.80617020e-01, 0., 0., 0.,
          0., 0., 0., 0., 3.25629354e-01, 0., 0., 3.45746160e-01,
          2.97387868e-01, 0., 0., -2.30684564e-01, 0., -2.06138611e-01,
          0., 0., 0., -7.68538296e-01, 0., 0., 2.66103377e-03, 0., 0.,
          0., 0., 4.07105207e-01, -1.39055356e-01, -1., -7.35979155e-03,
          0., 2.09069312e-01, -3.67963612e-01, 0., 2.52946824e-01, 0.,
          0., 0., -2.25828663e-01, -3.08206409e-01, 0., -1.76299244e-01,
          0., 0., 0., 0., 9.89922285e-01, 0., 0., 4.75145340e-01, 0., 0.,
          0., 0., 4.75145340e-01, 0., 0., 0., 0., 0., 0., 0.,
          1.63043663e-01, 1., 1.44631714e-01, 0., 5.29093921e-01, 1.,
          8.65676463e-01, 1.09831583e+00, 0., 0., 3.05587351e-01, 0., 0.,
          1., 0., 1., 1.55714735e-01, 0., 0., 0., 2.06650996e+00, 1., 0.,
          0., 1.63043663e-01, 0., 0., 0., 0., 6.38410449e-01,
          4.77438927e-01, 0., 2.78357476e-01, 0., 0., 0., 0., 1.,
          1.44631714e-01, 1.76612344e-02, 0., 0., 1., 0., 0., 0., 0., 0.,
          0., 0., 0., 4.28710729e-01, 0., 0., 0., 0., 0., 0., 0., 0.,
          8.32289279e-01, 0., 0., 0., 0., 0., 0., 0., 0., 0., 0., 0., 0.,
          0., 0., 0., 0., 0., 0., 0., 0., 0., 0., 0., 0., 0., 0., 0., 0.,
          0., 0., 0., 0., 0., 0., 0., 0., -1.81456208e-02, 0.,
          -7.89074823e-02, 0., 0., 2.52946824e-01, 0., 0., 0., 0., 0.,
          1.85397133e-01, 0., 0., 0., -5.42042553e-01, -5.31397879e-01,
          0., -3.12156290e-01, 0., -2.53427863e-01, 0., 0., 0.,
          -4.74411517e-01, 0., -4.00015563e-01, -7.47053146e-01,
          1.67457342e-01, 1.81979254e-01, 0., -1.27043039e-01, 0., 0.,
          0., 0., 0., 0., -5.96015036e-01, -1.68615803e-01, 0., 0.,
          -1.53751999e-01, 0., 0., 0., 7.63280034e-01, 0., 0., 0., 0.,
          2.09069312e-01, -4.89955902e-01, -1., -2.94500381e-01 ]
      - [ 0., 2.78797448e-01, 5.35388850e-03, 4.79980633e-02,
          1.82112213e-02, 1.33923357e-02, 0., 4.27269936e-02,
          4.44546975e-02, 4.44546975e-02, 0., 3.39956433e-02, 0., 0.,
          -5.79285145e-01, 0., 4.58113588e-02, 0., 0., 4.23279442e-02,
          0., 0., 0., 0., 0., 5.13155526e-03, 0., 0., 0., 0., 0., 0., 0.,
          0., 0., 0., 0., 5.22704236e-02, 0., 5.68061229e-03, 0.,
          2.04773352e-01, 0., 0., 0., 0., 0., 0., -6.56679496e-02,
          4.33711074e-02, -3.42372507e-01, 0., -5.57856739e-01, 0., 0.,
          0., 0., 0., 0., 0., 2.04773352e-01, 0., 0., 0., 0., 0.,
          5.55424914e-02, -9.75835696e-03, 2.58458912e-01,
          5.76090105e-02, 0., 0., 0., 0., 0., 1.62274819e-02,
          4.15796153e-02, 5.66444874e-01, 0., 2.21500292e-01, 0.,
          -8.08462966e-03, 0., -1.11650741e-02, 1.83851555e-01,
          -2.61237193e-02, 0., 0., 0., 1.40878856e-01, 0., 0.,
          3.25433671e-01, 3.25433671e-01, -3.83670963e-02,
          8.31400696e-03, 0., 0., 5.88858485e-01, 0., 0.,
          -7.17554212e-01, 0., 4.30596136e-02, 0., 0., 0., 0.,
          9.22942813e-03, 2.67418027e-01, 2.67418027e-01, 2.12935194e-01,
          0., 2.54330318e-02, 0., 0., 0., 0., 0., 0., 0., 4.72554378e-02,
          0., 0., 0., 0., 0., 0., 0., 0., 0., 0., 2.80349255e-02,
          6.75021484e-03, -7.91280344e-02, 0., 0., 0., 0.,
          -8.36199149e-02, -4.96242680e-02, -8.36199149e-02, 0.,
          8.35535645e-01, -9.94319096e-03, 2.25163717e-03, 0., 0.,
          3.53473127e-02, -1.09931445e-02, 0., 3.01145285e-01,
          5.02010062e-02, 0., -8.89064595e-02, 0., 0., -1.88469827e-01,
          0., 0., 0., 0., 0., 0., 0., -1.82012901e-01, 0., 0., 0., 0.,
          0., 0., 0., 0., 0., 0., 0., 0., 0., 0., 0., 0., 0., 0.,
          -1.23663351e-01, 0., 0., 0., 0., 0., 0., 5.28676957e-02, 0.,
          0., 3.17246243e-02, -1.01355063e-02, 0., 0., -1.81825589e-02,
          -1.00979283e-02, 0., -1.12918139e-01, 3.17246243e-02, 0., 0.,
          0., 0., 0., 3.17246243e-02, 3.17246243e-02, -3.84545885e-02,
          7.82027125e-01, 4.06745970e-02, 3.17246243e-02, 0., 0., 0.,
          -8.91430750e-02, 7.09744990e-02, 0., 0., 0., 6.62050843e-02,
          0., 0., -3.36381853e-01, 0., 0., 0., 0., 0., 0., 0., 0., 0.,
          3.75780619e-05, 0., 0., 0., 0., 0., 0., 0., 0., 0., 0., 0.,
          8.45325649e-01, 8.30086529e-01, 8.32003593e-01, 8.50280285e-01,
          8.26176405e-01, 8.95981397e-03, 3.51331010e-02,
          -1.08456723e-02, 8.41387510e-01, 8.54550362e-01,
          8.21298182e-01, 8.45943093e-01, 8.22642088e-01, 0.,
          8.28083158e-01, 0., 8.31470966e-01, 0., 8.26547563e-01,
          8.53125155e-01, 1., 6.99429989e-01, -9.37780947e-04,
          -2.81400476e-02, 0., 0., 0., 0., 0., 0., 0., 0., 0.,
          -4.77055870e-02, 0., 0., 0., 0., 0., 0., 0., 0.,
          1.41665395e-02, 0., 5.28435521e-02, 3.04709636e-02,
          2.65219092e-01, -2.25464301e-03, 0., 2.17624772e-02,
          -1.84567608e-02, 0., 0., 0., 0., 0., 0., 1.95409089e-01,
          9.42478105e-02, -1.58415772e-02, 0., 3.63730267e-02,
          -1.17290467e-02, 0., 2.84869820e-02, 0., 0., 0., 0., 0.,
          -1.61151379e-01, 0., 2.00836614e-01, -2.14174613e-02, 0., 0.,
          0., 0., 0., 0., 0., 0., 1.63986366e-02, 0., 0., 5.43389544e-02,
          0., 1.11825420e-02, 0., 0., -6.56826943e-02, 0.,
          4.04642448e-02, 0., 0., 3.76812279e-01, 0., 3.25433671e-01, 0.,
          0., 3.10123533e-01, 0., 8.79262015e-02, 0., 0., 0., 0., 0., 0.,
          0., 0., 0., 0., 0., 0., 0., 0., 0., 0., 0., 0., 0., 0., 0., 0.,
          0., 0., 0., 0., 0., 0., 0., 0., 0., 0., 0., 0., 0., 0., 1., 0.,
          0., 0., 0., 0., 0., 0., 0., 0., 0., 0., -1.30415577e-02,
          6.04050934e-01, 0., 0., 0., 0., 0., 0., 0., 0., 0., 0., 0.,
          -1.51235899e-02, 0., 0., 0., 0., 0., 0., -8.39514472e-03, 0.,
          1.33544663e-02, 8.04198757e-02, 3.01456768e-02, 2.29019150e-02,
          0., 3.41551453e-02, 3.52373496e-02, 0., 0., 0., 0., 0., 0., 0.,
          2.37079198e-03, 3.75780619e-05, -1.68005433e-02, 0.,
          9.15670395e-03, -4.48627584e-03, 1.94923684e-03,
          3.46280038e-02, 0., 0., 3.73731554e-02, 0., 0., 5.37977852e-02,
          0., 1.34704972e-03, 1.05334543e-01, 0., 0., 1.11631611e-02,
          4.59715761e-02, 5.03968820e-02, 8.28859489e-03, 0., 0., 0.,
          1.71418384e-01, 0., 0., 5.31750992e-02, 8.29450693e-03, 0.,
          5.31799309e-02, 1.53985813e-01, 0., 0., -1.40743956e-01,
          3.75780619e-05, 1.19351037e-02, -2.32566342e-01,
          2.16912225e-01, 0., 2.62512993e-02, 0., 0., 0., 0., 0., 0., 0.,
          -1., -1.95714509e+00, 0., -1., 0., -1.11156237e+00, -1.,
          -1.39382827e+00, 0., 0., -1.98589635e+00, -1.10923064e+00,
          -1.95172048e+00, 0., -2.01844430e+00, 0., 0., 0., 0.,
          -1.16121852e+00, 0., -1.37450480e+00, -1.15707910e+00, 0., 0.,
          0., 0., -1.94625139e+00, -1.40552914e+00, -1.97341073e+00, 0.,
          -1.93618226e+00, -1.45128691e+00, -1., 0., -1.93980241e+00, 0.,
          -1.11633766e+00, -1.16071904e+00, -1.13139522e+00,
          -1.37887096e+00, -1.21550608e+00, 0., -1.10998189e+00,
          -1.93010926e+00, -1.36935437e+00, -1.17042112e+00,
          4.33711074e-02, 0., 1.25342468e-02, 0., 0., 0., 0., 0., 0., 0.,
          0., 0., 0., 0., 0., 0., 0., 0., 5.27621545e-02, 4.33711074e-02,
          1.25342468e-02, 0., 0., 0., 0., 0., 3.39956433e-02, 0., 0., 0.,
          0., 0., 0., 5.22365905e-02, 0., 0., 0., 0., 0., 1.11825420e-02,
          0., 0., 0., 0., 0., 0., 0., 0., 0., 0., 0., 0., 0., 0., 0. ]
      - [ 0., -2.74249136e-01, 3.86889093e-02, 0., 4.58361924e-01,
          6.39288068e-01, 0., 0., -1.26462534e-01, -1.80926144e-01, 0.,
          0., 0., 0., -2.66037732e-01, 0., 3.39721680e-01, 0., 0., 0.,
          0., 0., 0., 0., 0., -6.48965895e-01, -8.34469438e-01,
          -4.67775553e-01, -1., -6.36783063e-01, -8.22104990e-01,
          -6.63979053e-01, -4.78034914e-01, 0., 0., 0., 0.,
          -4.79027450e-01, -6.37391031e-01, -6.48089230e-01, 0.,
          -6.38462365e-01, -4.56052780e-01, 0., 0., -6.39964700e-01,
          -4.62458402e-01, 0., -4.44402426e-01, -7.10401759e-02,
          -6.15691781e-01, -6.37939274e-01, -4.59613532e-01,
          -4.34542447e-01, -4.74107534e-01, -2.79121757e-01,
          1.46109223e-01, -7.73894429e-01, -3.34844917e-01,
          -6.03048146e-01, 8.22395742e-01, 0., 0., 0., 0., 0.,
          5.85451815e-03, -2.64713943e-01, 3.08841765e-02,
          2.09125318e-02, 0., 0., 0., 3.14466357e-01, 0.,
          -2.61466235e-01, 1.98700100e-01, 3.16908240e-01, 0.,
          -2.96088099e-01, 1.79427370e-01, -4.70093638e-01, 0.,
          -4.88374621e-01, -1.11223292e-02, -1.01725280e-01, 0., 0.,
          -4.74107534e-01, -2.86251694e-01, 0., 0., 4.76780646e-02,
          -1.15059622e-01, -2.75882930e-01, -2.79728651e-01,
          -2.90177882e-01, -4.78373528e-01, -2.85729825e-01, 0., 0., 0.,
          -1.19919181e-01, -2.88776308e-01, 0., 0., -2.94964701e-01, 0.,
          -3.08144599e-01, -6.49020523e-02, -6.49020523e-02,
          -3.40376318e-01, 0., 3.41882646e-01, 0., 0., 0., 0., 0., 0.,
          0., 0., 0., 0., 0., 0., 0., -6.56782314e-02, 0., 0., 0., 0.,
          0., 0., 1.86661959e-01, 0., 0., 0., -7.56539851e-02, 0.,
          -9.37252790e-02, 5.13422668e-01, 0., 0., 0., 2.67538399e-01,
          0., 0., 0., -9.37252790e-02, 0., -3.45361441e-01, 0., 0., 0.,
          4.23128940e-02, 0., 0., 0., -6.89294934e-02, 0., 0., 0., 0.,
          0., 2.12625608e-01, 0., 0., 0., 0., 0., 0., 0., 0., 0., 0., 0.,
          0., 0., 0., 0., 0., 0., 0., 3.38534713e-01, 0., 0., 0., 0., 0.,
          0., 0., 0., 0., -7.21301436e-02, 0., 0., 0., 0., 0., 0., 0.,
          0., 0., 0., 0., 0., 0., 0., 0., -1.65864825e-01, 0., 0., 0.,
          0., 0., 0., 0., -3.71543109e-01, 1.24778226e-01, 0., 0.,
          4.95306104e-01, 0., 0., -4.46640328e-02, 0., 0., 0.,
          1.57468006e-01, 0., 0., 0., 0., 0., 0., 0., 0., 0., 0., 0., 0.,
          0., 0., 0., 6.35458017e-03, 0., 1.48213947e+00, 1.34507072e+00,
          1.89019370e+00, 1.83443248e+00, 1.53771961e+00,
          -9.36273858e-02, 1.48942366e-01, -1.46875337e-01,
          1.28358626e+00, 1.27060056e+00, 1.34900618e+00, 1.05385125e+00,
          1.84099042e+00, 0., 9.19453681e-01, 1.86661959e-01,
          1.36742902e+00, 0., 1., 1.30354178e+00, 1.05144310e+00,
          1.02387106e+00, 2.94413790e-02, 2.98142657e-02,
          -7.73894429e-01, -7.73894429e-01, 0., 0., 0., -1.14480266e-02,
          0., 0., 0., -2.00710997e-01, 0., 0., 2.98142657e-02, 0.,
          -5.67491800e-02, 0., 2.84296693e-03, 0., -2.66037732e-01,
          -4.46640328e-02, -2.31846675e-01, 5.40890217e-01,
          4.56010252e-01, 4.75446880e-02, 5.85451815e-03, 3.47325295e-01,
          9.98689383e-02, 0., 3.66844386e-02, 0., 0., 0., 0.,
          1.43481538e-01, 4.17553306e-01, 0., 3.10212597e-02,
          2.15600012e-03, 2.79707521e-01, 0., 1.19329110e-01,
          1.09053804e-02, 0., 0., 0., 0., 2.23020483e-02, 0.,
          1.14063181e-01, -8.03407282e-02, 0., 0., 0., 0., 0., 0., 0.,
          0., 3.97496015e-01, 0., 0., 2.79707521e-01, 0., 0., 0., 0.,
          -4.66206402e-01, 0., 0., 0., 0., 3.86438340e-01, 0., 0., 0.,
          0., 2.23020483e-02, 0., 0., 0., 0., 0., 0., 3.42677832e-01,
          -2.94339031e-01, -3.31715971e-01, 0., 0., -2.71340680e+00,
          -1.02642989e+00, 0., -4.35234517e-01, 0., 0., 0., 0., 0., 0.,
          -4.82584804e-01, 0., -1.19919181e-01, -4.24298108e-01, 0.,
          -6.10708237e-01, -1., 0., -7.21808255e-01, 0., 0.,
          -1.06891684e-01, -1.05106561e-02, -1.44579387e+00, 0.,
          -3.77043068e-01, 0., -1.16205180e+00, 0., -2.98653543e-01, 0.,
          -2.87495852e-01, -2.25590169e-01, 0., -1.13843746e-01,
          -4.65560317e-01, -4.16191936e-01, -4.08049107e-01, 0.,
          7.80320391e-02, -1.84499457e-01, -4.52378452e-01, 0., 0., 0.,
          1.71155691e-01, -7.00710788e-02, -1.84166297e-01, 0., 0.,
          -2.78047383e-01, 0., -1.90814376e-01, 0., -2.64933463e-02, 0.,
          0., 0., -2.78047383e-01, 4.69418973e-01, 0., -4.64690566e-01,
          0., 0., 0., 0., -6.43151253e-02, 0., 0., -6.43151253e-02, 0.,
          0., 0., 0., 5.29011130e-01, 0., 0., 0., 0., 4.07810301e-01, 0.,
          3.12237978e-01, -1.42110333e-01, 0., 0., 0., 0.,
          1.93660092e-02, -7.21656680e-02, 0., -2.33380988e-01, 0., 0.,
          0., 0., 7.39752688e-03, -6.41610324e-02, 0., 0., 0., 0.,
          1.93660092e-02, -9.22434777e-02, 1.93660092e-02, 0., 0., 0.,
          0., -5.95921464e-02, 0., 0., 0., 0., 5.33735394e-01,
          2.78212160e-01, -9.77648348e-02, 0., -1.71901494e-01, 0.,
          -7.67579019e-01, 0., -1.68245479e-01, 0., 0., 0., 0.,
          6.37799501e-01, 0., 0., 0., 0., 0., 0., 0., 0., 2.15642713e-02,
          0., -5.95921464e-02, 0., 0., 0., -4.66206402e-01, 0., 0., 0.,
          0., 0., 0., 0., 0., 0., 0., 0., 1.32033512e-01, 0., 0.,
          -9.22434777e-02, -4.66206402e-01, 0., 0., 0., 0.,
          -3.02760392e-01, 0., 0., 0., 0., 3.66844386e-02, 0., 0., 0.,
          0., 2.43631471e-02, -2.31255189e-01, -1.86925828e-01, 0., 0.,
          0., -2.83684641e-01, 5.92592478e-01, -1.32621914e-01,
          2.33224392e-01, 0., 0., 0., 0., 0., -2.21769467e-01,
          -1.80926144e-01, 2.33224392e-01, 5.09522319e-01,
          -5.12764454e-01, 2.34820112e-03, 0., 0., 0., 6.03914261e-01,
          0., 0., 0., 2.33224392e-01, 2.53008276e-01, -4.08049107e-01,
          -2.73974296e-02, 0., 0., 0., 0., 0., 2.33224392e-01, 0., 0.,
          0., 0., 4.01987314e-01, 0., -1.23653099e-01, 0., 0., 0.,
          -6.43151253e-02, 0., 0., 0., 2.12625608e-01, 0.,
          -4.08049107e-01 ]
      - [ 1.47293101e-03, 3.13752592e-02, 5.80766350e-02, 4.22725715e-02,
          0., 5.49761467e-02, 0., 0., 0., 0., 0., 2.21598651e-02, 0., 0.,
          2.21598651e-02, 0., -2.72166710e-02, 0., 0., 0., 0., 0., 0.,
          0., 0., -3.54922609e-04, -1.75542701e-02, 0., 0., 0.,
          8.14341195e-03, 0., -3.32018174e-02, 0., 0., 0., 0., 0.,
          -1.28101939e-02, 8.69937986e-03, 0., -2.99814045e-02, 0.,
          -4.63310368e-02, 0., 0., 0., 0., 0., -1.22546423e-02,
          -4.17243969e-03, -4.45174463e-02, 7.76619231e-03, 0.,
          -1.42641477e-02, -4.93655205e-02, 5.12678884e-02,
          -1.84265021e-02, 0., 0., 2.77349763e-02, 0., 0., 0., 0., 0.,
          -3.98762934e-02, -5.28931208e-02, -2.61937063e-02,
          -3.00277323e-02, -5.79940453e-02, 0., -2.13413090e-02,
          -2.64122784e-02, -2.13413090e-02, -2.25861073e-02,
          -1.96480677e-02, -2.13651285e-02, -2.32236534e-02,
          -2.02984875e-03, -3.13847442e-03, 0., 0., -7.24683190e-03,
          -1.59030911e-02, -3.85278370e-03, 0., 0., -6.05282653e-03,
          -3.11179310e-02, 0., -3.20062153e-02, 5.39728720e-03,
          -3.29989605e-02, 0., -1.32657206e-02, 0., 0., -2.07956042e-02,
          0., 7.64981611e-03, 0., -3.08492761e-02, -6.06776075e-03, 0.,
          0., 4.74407570e-03, 0., 2.60870368e-03, -9.90336528e-04,
          -9.90336528e-04, -1.03007834e-02, 0., -1.61815155e-02,
          -6.57849610e-02, 0., 0., 0., 0., 0., 0., 6.50142971e-03, 0.,
          0., 0., 0., 0., 0., 0., 0., 0., 0., 5.89973386e-03, 0.,
          -6.51969528e-03, 0., 0., 0., 0., 0., 7.29948096e-03, 0., 0.,
          0., 0., 6.96937600e-03, 0., 0., -1.96820777e-02,
          -5.26382774e-03, 0., 7.62345619e-04, 0., 0., 0.,
          -1.46423858e-02, 0., 0., 0., 0., 0., 0., 0., 0., 0.,
          2.45049056e-02, 0., 0., 0., 0., -2.65890453e-02, 0., 0., 0.,
          0., 0., 0., 0., 0., 0., 0., 0., 0., 0., 6.52713701e-03,
          1.43955471e-02, -4.16759402e-02, -6.29650056e-02, 0.,
          5.10756783e-02, 0., -5.66480868e-02, 0., 0., 0.,
          -4.26019169e-03, 3.46476547e-02, 0., -2.92198844e-02, 0., 0.,
          -3.16031184e-03, 1.53090814e-02, 0., 1.02460803e-02, 0., 0.,
          1.28674814e-02, 3.98009941e-02, -4.77345921e-02,
          2.09101215e-02, 0., 0., -1.34063922e-02, 0., 0., 0.,
          -1.35513116e-02, -2.17801705e-02, 5.96203515e-03, 0., 0.,
          -8.53268150e-03, 0., 0., 0., 0., 0., 0., -1.94873642e-02, 0.,
          0., -1.35513116e-02, 0., 0., 1.68504044e-02, 0., 0., 0., 0.,
          0., 0., 0., 0., 0., 1.01664467e-02, 0., 2.00227785e+00,
          2.00277996e+00, 2.02099967e+00, 2.00630403e+00, 1.98718429e+00,
          1.88589655e-02, 0., 7.07119107e-02, 1.99440205e+00,
          1.94568539e+00, 2.02031279e+00, 1.93947840e+00, 1.98344314e+00,
          0., 1.97566760e+00, 1.13199614e-02, 1.96523035e+00, 0.,
          1.31421745e+00, 1.94470716e+00, 1.94413936e+00, 1.93840075e+00,
          3.14217418e-01, 7.96810072e-03, 0., 0., 0., 0., 0., 0., 0., 0.,
          4.56361100e-02, 2.99847424e-02, 0., 0., 7.96810072e-03, 0., 0.,
          0., 0., 0., 0., 0., -2.49588229e-02, 3.26370751e-03,
          -3.13673913e-03, 1.84249901e-03, -3.24855037e-02,
          8.57811235e-03, -3.55235330e-04, 0., 0., 0., 0., 0., 0.,
          -3.44862998e-03, -1.56448949e-02, -5.38517628e-03,
          3.02633885e-02, -1.93851851e-02, -1.47561450e-02,
          -2.68021598e-02, -7.71000559e-05, -2.23540403e-02, 0., 0., 0.,
          0., -5.99125866e-03, -5.29239662e-02, 4.10712743e-03,
          5.56441629e-03, -1.02681322e-02, 0., -1.55741610e-02,
          -1.68811940e-02, -1.02681322e-02, 0., 0., 0., -2.27363147e-02,
          0., 0., 3.91064677e-03, 0., 0., 0., 0., -9.59647261e-03,
          -4.26019169e-03, 1.09484727e-02, 0., 0., 1.21220853e-03,
          -2.45009046e-02, -1.02681322e-02, -3.61793935e-02,
          -1.20159276e-02, 2.88097262e-02, 0., 0., -3.59022841e-02, 0.,
          0., -6.62774546e-03, -2.19959766e-02, -3.84455384e-03, 0., 0.,
          0., 0., -8.25581257e-04, 0., 0., 0., 0., 0., 0., 0., 0., 0.,
          0., 0., 0., 0., -2.73965001e-02, 0., 0., -5.31313568e-03, 0.,
          0., 9.33585241e-02, 0., -3.48933525e-02, 0., 4.23561744e-02,
          -2.72547826e-02, 3.96354310e-03, 0., 0., -5.29239662e-02, 0.,
          0., 0., -3.25311124e-02, 0., 0., 0., 0., -2.60491483e-03,
          -1.56861041e-02, -1.65673438e-02, -2.47100722e-02, 0.,
          -5.11376821e-02, -5.74128851e-02, 6.71039149e-03,
          -3.92306186e-02, 0., -2.75999103e-02, -3.32322046e-02,
          -4.16093040e-03, -1.12199327e-02, -2.40356177e-02,
          -1.39005817e-02, 0., 0., -5.53811640e-02, -2.28536502e-02,
          2.29280628e-03, 0., 0., 0., 0., 0., 0., 0., 0., 0., 0., 0., 0.,
          0., 0., 2.29280628e-03, 0., 0., 1.32335685e-02, 0.,
          2.29280628e-03, 0., 4.95308917e-03, 0., 0., 0., 0., 0., 0.,
          7.96810072e-03, 0., 2.14864071e-02, 0., 0., 0., 1.21028377e-02,
          2.29280628e-03, 2.50316523e-02, 0., 0., 0., 0., 0., 0., 0.,
          3.14217418e-01, 0., 0., 0., 0., 0., 0., 0., 0., 1.32335685e-02,
          4.74407570e-03, 0., 0., 2.35152021e-02, 0., 0., 0.,
          4.95308917e-03, 0., 0., 0., 0., 6.07702434e-02, 0., 0., 0., 0.,
          0., 0., 0., 0., 6.16402328e-02, 0., -3.32412086e-02, 0.,
          -6.50596172e-02, 0., 0., 0., 0., 0., 0., 0., 0., 0., 0., 0.,
          0., 0., 1.98079436e-03, 0., 0., 0., 0., 0., 0., 0., 0., 0., 0.,
          0., 0., 0., 0., 0., 0., 0., -3.07529904e-02, -4.83822124e-03,
          0., -2.94475984e-02, 0., 0., 4.89333086e-02, 0.,
          1.16508752e-01, 3.11745740e-02, -5.86886108e-02, 0.,
          -3.46299969e-02, 0., 0., 0., 0., 0., 0., -1.59931947e-02,
          3.56601318e-03, -1.30659463e-02, 0., 0., 0., -7.55375857e-03,
          0., 0., 7.49749914e-02, -3.05851735e-02, -9.87134315e-03,
          -5.03732860e-02, 3.68811153e-02, 0., 0., -2.50885412e-02, 0.,
          0., -1.07964939e-02, 8.71595833e-03, 5.52265458e-02, 0., 0.,
          2.24328376e-02, -1.09063154e-02, 0., 0., 8.71595833e-03,
          -2.75317542e-02, 0., 0., 0., 3.02975774e-02, 1.88718066e-02,
          0., 0. ]
      - [ 0., -5.30837812e-02, 2.24281698e-01, -6.87389597e-02,
          4.30905540e-03, -1.84584912e-02, 0., 0., -7.20744580e-02,
          -7.20744580e-02, 0., -7.09152222e-02, 0., 0., -1.68766066e-01,
          0., 7.73031786e-02, 0., 0., 4.44458425e-02, -3.93519364e-03,
          0., -1.49629042e-01, 0., 0., 2.76115656e-01, 0., 0., 0., 0.,
          5.64672768e-01, 0., 0., 0., 0., 0., 0., 0., 0., 8.22570146e-05,
          0., -3.70768979e-02, -1.20549209e-01, 0., 0., -9.86572877e-02,
          3.87913808e-02, 0., 0., 0., 0., 0., 0., 0., 0., 0.,
          4.47153486e-03, -1.38483748e-01, 0., 0., 0., -7.43883178e-02,
          0., 0., 0., 0., 5.63043654e-02, 5.43150067e-01, 1.48946628e-01,
          2.92019397e-01, -2.80532539e-02, -2.80532539e-02, 0.,
          -3.69117223e-02, 0., 7.87388459e-02, 1.75356120e-02,
          1.37221724e-01, 1.08659640e-02, -5.52754216e-02, 0., 0., 0.,
          -1.24868222e-01, 3.86636853e-02, -6.35952577e-02, 0., 0., 0.,
          -1.05963826e-01, 0., -3.35487537e-02, 1.07819185e-01, 0., 0.,
          0., -5.51784523e-02, 0., 1.75804436e-01, 0., 0., 0.,
          -1.38483748e-01, -9.33628082e-02, 0., 0., 0., 0.,
          -7.14741871e-02, -7.82315340e-03, -7.82315340e-03, 0., 0., 0.,
          0., 0., 0., 0., 0., 0., 0., -2.96249837e-01, 0., 0., 0., 0.,
          0., 0., 0., 0., 0., 0., 3.83874625e-02, 0., 0., 0.,
          -4.05645370e-02, 0., 0., 1.55600265e-01, -4.89445776e-02,
          -4.55235168e-02, 0., 2.09961250e-01, -1.16213284e-01,
          4.48109806e-02, 0., -2.80093327e-02, -8.91167019e-03,
          -6.46243244e-02, 0., 1.05037548e-01, 0., -1.85069591e-01,
          2.43510008e-01, -2.10934639e-01, 0., -1.77060544e-01, 0.,
          1.53176649e-03, 0., 0., 0., 0., 0., 0., 0., -1.12267897e-01,
          -6.01007164e-01, 1.65983960e-02, 0., -4.56849933e-01, 0., 0.,
          0., 0., 0., 0., 0., 0., 0., 0., 0., 0., -4.66835588e-01, 0.,
          0., -1.20549209e-01, 0., 0., 0., 3.73114236e-02, 0., 0.,
          1.26769707e-01, -2.83287108e-01, 1.35619283e-01, 0.,
          -1.78565800e-01, 4.83552925e-02, 0., -2.68247724e-01,
          1.26769707e-01, 0., 2.16685608e-01, 0., 0., -4.58953716e-03,
          -3.17824274e-01, 1.26769707e-01, -2.40013897e-02,
          1.28583565e-01, 0., 1.26769707e-01, -8.17811862e-02, 0., 0.,
          -1.91244241e-02, -2.36045688e-01, 3.01486067e-02, 0., 0.,
          -2.02100351e-01, -1., 0., -5.88615954e-01, 5.27335703e-02, 0.,
          0., 4.40416597e-02, 0., 0., 0., 0., 0., 4.83552925e-02, 0., 0.,
          0., 0., -1.61354229e-01, 0., -1.10284758e+00, 0., 0.,
          -2.79821217e-01, 0., 7.63510764e-01, 7.49494910e-01,
          8.00749242e-01, 1.38302505e+00, 8.11145723e-01,
          -1.39240539e-02, 0., 9.60343052e-03, 7.39233792e-01,
          7.00449526e-01, 7.64939070e-01, 6.94458187e-01, 6.76619470e-01,
          0., 6.13000154e-01, 4.03190583e-01, 7.87440538e-01, 0., 1.,
          1.81939483e+00, 1.06135809e+00, 5.39369226e-01,
          -2.05532122e+00, -1.39611888e+00, -1.68219125e+00,
          -1.28807580e+00, -1.24149358e+00, -1., 0., -1.36274159e+00,
          -1., -1.23559737e+00, -1.63991392e+00, -2.02725673e+00, 0.,
          -1.32606292e+00, -1.43670189e+00, -1.58869576e+00,
          -1.50920987e+00, 0., -1.09937787e+00, 0., -2.00496101e+00,
          -1.56409848e+00, -5.67895994e-02, 2.44148821e-02,
          3.49868149e-01, 5.89063466e-02, 2.50350088e-02, 4.05087247e-02,
          6.58344328e-02, 0., 0., 0., 0., 0., 0., -3.30972403e-01,
          1.11739777e-01, 0., 2.27644160e-01, 2.06363574e-02,
          1.13480143e-01, 1.56928107e-01, 3.67645398e-02, 0., 0., 0., 0.,
          0., 4.13865559e-02, 0., 1.53231576e-01, 1.94069128e-02, 0., 0.,
          0., 0., 0., 0., 0., 1.56928107e-01, 1.97532594e-01, 0., 0.,
          -4.50996496e-02, 0., 5.80075718e-02, 0., 0., -3.21242101e-02,
          0., 0., 0., 0., 2.73299932e-01, 0., 0., 0., 0., 1.44493774e-01,
          0., 0., 0., 0., 0., 0., 3.95300798e-02, 0., 0., 0., 0., 0.,
          -4.45462584e-01, 0., -8.17811862e-02, 0., 0., 0., 0., 0., 0.,
          0., 0., 0., 0., 0., 0., -7.92532787e-02, 0., 0., 0., 0.,
          9.17842016e-02, 1.97532594e-01, -8.17982316e-01, 0., 0., 0.,
          -1.55433893e-01, 0., 0., 0., 0., 0., 0., 1.29973814e-01, 0.,
          0., 0., 0., -2.36674890e-01, -1.38065264e-01, 0., 0., 0.,
          -1.40769094e-01, -8.86630714e-02, -5.84782893e-03,
          2.55535338e-02, 0., 0., 0., 0., -8.99996161e-02, 0., 0., 0.,
          0., 0., 0., 8.83062743e-03, 0., 0., 0., 0., 0., 0.,
          1.55270740e-01, 0., 0., 0., 0., 0., 0., 0., 4.40416597e-02,
          1.28508002e-01, 4.83552925e-02, 0., 0., 3.89806837e-01,
          -3.24443802e-02, 8.15731883e-01, 9.37260762e-02, 0., 0.,
          -1.58727337e-02, 0., 0., 6.15319133e-01, 0., 1.71094343e-01,
          1.73332579e-02, 0., 0., 9.01609436e-02, 1.99561194e-01,
          7.83873379e-01, 0., 0., -1.71914414e-01, 0., 0.,
          -2.03280300e-02, 0., 3.15796673e-01, 3.93065959e-01, 0.,
          2.79898178e-02, 0., 0., 0., 0., 3.11501265e-01, 0., 0.,
          8.87732089e-01, 0., 3.25836927e-01, 0., 3.36895287e-02, 0., 0.,
          0., 0., 0., 0., 3.13362256e-02, 0., 0., 0., 2.09196974e-02, 0.,
          0., 0., 0., -1.05916513e-02, 0., 0., 0., 0., 0., 0., 0., 0.,
          0., 0., 0., 0., 0., 0., 0., 0., -8.17811862e-02,
          6.13580830e-02, 0., 0., -1.80447266e-01, 0., 0., 0., 0., 0.,
          0., 0., 0., 0., 0., 0., 0., 0., 0., 0., 3.74808908e-01, 0., 0.,
          0., 0., 0., 0., 0., 3.63788903e-02, 0., 0., 0., 0., 0., 1., 0.,
          0., 0., 8.55010469e-03, 0., 0., 0., 0., 0., 0., 0., 0., 0.,
          -2.78466120e-02, -3.19154084e-01, 0., 0., 0., -1.16888382e-01,
          0., 0., 0., -2.78466120e-02, 0., 5.80075718e-02, 0., 0., 0.,
          1.42653972e-01, 0., 0., 5.80075718e-02, 0., 0., 0., 0., 0., 0.,
          0., 0. ]
      - [ 0., 3.88851434e-01, 1.75369158e-02, -1.82343230e-01,
          8.71442407e-02, 8.71442407e-02, 0., 0., 0., 0., 0., 0., 0., 0.,
          0., 0., 0., 0., 0., 0., 0., 0., 0., 0., 0., -2.41289847e-02,
          0., 0., 0., 0., -7.21982718e-02, 0., 0., 0., 0., 0.,
          -9.85310972e-02, 0., -9.85310972e-02, -2.10426196e-01, 0.,
          -5.42424284e-02, 0., 0., 0., 0., 0., 0., 0., 5.18586159e-01,
          -1.56426355e-01, 0., -9.85310972e-02, 0., 0., 0.,
          9.80361030e-02, 0., 0., -1.11386701e-01, 0., 0., 0., 0., 0.,
          0., -1.95315555e-01, 4.04483580e-04, 6.73167586e-01,
          -1.15039483e-01, 0., 0., 0., -3.68118912e-01, 0.,
          2.50037104e-01, 3.88716459e-01, 6.03444457e-01, 0.,
          1.29315808e-01, 1.41020089e-01, 0., 0., -3.45491439e-01,
          3.47924411e-01, 1.81814611e-01, 0., 0., -3.57909888e-01,
          1.94665954e-01, 0., -3.15305769e-01, 2.18980256e-02, 0., 0.,
          9.80361030e-02, 0., 0., 9.66298506e-02, 0., 0., 0., 0.,
          -8.86196122e-02, 0., 0., 0., 0., 1.79584175e-01,
          1.72451846e-02, 1.72451846e-02, 0., 0., 0., -4.86076653e-01,
          0., 0., 0., 0., 0., 0., 0., 0., -8.10744893e-03,
          -8.10744893e-03, 0., 0., 0., 0., 0., 0., 0., 3.03397447e-01,
          0., 0., 0., 0., 0., 0., 0., 0., 0., -2.78317928e-01,
          2.61943638e-01, -8.60578537e-01, 4.12370265e-02,
          -1.20888591e-01, 0., -5.30123770e-01, -1.31286308e-01, 0.,
          9.66298506e-02, 0., 0., 0., 1.64035246e-01, 0., 0., 0., 0., 0.,
          0., 0., 0., 0., -9.36271548e-02, 0., 0., 0., 0., 0., 0., 0.,
          0., 0., 0., 0., 0., 0., 0., 0., 0., 0., 0., -3.27493995e-02,
          -3.27493995e-02, 0., 0., 0., 0., 0., 4.47315723e-02, 0., 0.,
          0., 0., 0., 0., 0., 0., 0., -1.15971535e-01, -2.65005212e-02,
          0., 0., 0., 0., 0., 1.64035246e-01, 0., 2.08766818e-01, 0., 0.,
          0., 0., 0., 0., -1.15971535e-01, -9.22684893e-02,
          -1.15971535e-01, 0., 0., -4.43349689e-01, 0., 0., 0., 0., 0.,
          0., 8.18914473e-02, 0., 0., 0., 0., 0., 0., 0., 0., 0., 0., 0.,
          0., 0., 0., 0., 0., 0., 6.11311257e-01, 9.48266029e-01,
          7.65326440e-01, 8.43277752e-01, 6.40178561e-01, 1.50564378e-02,
          -4.23186123e-01, -1.84206039e-01, 1.11568034e+00,
          7.69095719e-01, 8.20192099e-01, 4.30748791e-01, 6.54147983e-01,
          0., 8.18914473e-02, 0., 6.10251129e-01, 0., 4.36318159e-01,
          5.12717903e-01, 1.12858295e+00, 4.18120682e-01,
          -3.06751393e-02, 2.79887706e-01, 0., -2.15802908e-01, 0., 0.,
          0., 0., 0., 0., -9.85310972e-02, 0., 0., 0., 0., 0., 0., 0.,
          0., 0., 3.65076065e-02, 0., 1.69572130e-01, 3.31146866e-01,
          3.56359452e-01, 3.37578535e-01, 7.49287367e-01,
          -2.11198449e-01, 3.94093990e-02, 0., 2.01158747e-02, 0., 0.,
          0., 0., -5.16287342e-04, 2.33660460e-01, 0., 2.81681716e-01,
          -1.62359089e-01, 6.52867034e-02, -1.99067146e-02,
          7.66309083e-01, 1.82998791e-01, -4.58049804e-01, 0., 0., 0.,
          1.09503707e-02, 0., 2.29026243e-01, 2.46271431e-01, 0., 0., 0.,
          0., 0., 0., 0., 4.99521285e-01, 5.18160939e-01, 0., 0.,
          2.28549764e-01, 0., 3.38703036e-01, 0., 0., -2.73705006e-01,
          0., 4.10601236e-02, 0., -1.89623266e-01, 7.54710257e-01, 0.,
          0., 0., 0., 1.09503707e-02, 0., 0., 0., 0., 0., 0., 0.,
          1.67556137e-01, 0., 0., 0., 0., -8.49601388e-01, 0.,
          -1.15971535e-01, 0., 0., 0., 0., 0., 0., -5.91068447e-01,
          -4.17195708e-01, 0., 0., 0., -1.87866434e-01, 0., 0.,
          -1.90752074e-01, 0., 0., 0., 0., -5.72080433e-01, 0., 0., 0.,
          -2.27639303e-01, 0., 0., 0., 0., 0., 0., 0., -2.90178835e-01,
          0., 0., 0., -1.50958195e-01, -2.34414567e-03, 0., 0., 0.,
          1.10112324e-01, 1.24347560e-01, -9.89739969e-02,
          -9.89739969e-02, 0., -4.73941788e-02, -9.85310972e-02, 0.,
          4.58741874e-01, 0., 0., 0., 0., 0., 0., 8.18914473e-02, 0., 0.,
          0., 0., 0., 0., 0., 0., 0., 0., 0., 0., 0., 0., 8.18914473e-02,
          0., 0., 4.48090956e-03, 0., 8.18914473e-02, 0., 6.30068481e-02,
          1.04053609e-01, 0., 0., 0., 0., 0., 0., 0., 1.09232217e-01, 0.,
          0., 0., 0., 5.59953988e-01, 1.04053609e-01, 0., 0., 0., 0., 0.,
          0., 0., 0., 0., 0., 0., 0., 0., 0., 0., 0., 4.48090956e-03, 0.,
          0., 0., 0., 0., 0., 0., 0., 0., 0., 0., 0., -6.99312329e-01,
          0., -7.86950886e-01, 0., -9.92742240e-01, -7.81893253e-01,
          -1.61889064e+00, 0., 0., -1.56131601e+00, -8.71722221e-01,
          -1.19974041e+00, 0., -1.32502401e+00, 0., -2.12863660e+00,
          -3.90986860e-01, 0., -5.21297395e-01, 0., -8.52763236e-01,
          -7.45551050e-01, 0., 0., 0., -1.89662486e-01, -1.74858296e+00,
          -1.08820987e+00, -1.23574471e+00, 0., -2.09226847e+00,
          -1.41038561e+00, 0., -4.10385579e-01, -2.07464600e+00, 0., 0.,
          -2.26934671e-01, -4.50585663e-01, -1.18962324e+00, 0.,
          -8.10773730e-01, 0., -1., -5.74050367e-01, -1.24512412e-01,
          -8.57753575e-01, 0., -3.58055741e-01, 0., -1.58987343e-01, 0.,
          -6.88723385e-01, 3.73098761e-01, -9.79802310e-01,
          -2.32903823e-01, 0., 4.25745584e-02, 0., 0., -1.12411523e+00,
          -4.72343266e-01, 0., 3.40001881e-01, -6.23336077e-01,
          -4.75710988e-01, -3.58667791e-01, 0., 0., 0., -4.91713464e-01,
          0., -1.20888591e-01, 0., -1.59772307e-01, 8.93982574e-02,
          -9.44158137e-02, 2.47850455e-03, 0., -2.56110936e-01, 0.,
          -2.36094832e-01, 0., 3.84107262e-01, 1.24347560e-01,
          1.65950391e-03, 0., 0., -3.77317935e-01, -2.14497238e-01, 0.,
          0., -2.31653154e-01, 0., -2.45289743e-01, 0., 0.,
          3.03397447e-01, -4.75080349e-02, 0., -1. ]
      - [ 0., 5.07437326e-02, 3.02342847e-02, 2.64941696e-02,
          3.50545049e-02, 2.96853986e-02, 0., 0., 0., 0., 0., 0., 0., 0.,
          0., 0., 0., 0., 0., 0., 0., 0., 0., 0., 0., -7.63588352e-03,
          -3.85893434e-02, 0., -8.00189562e-03, 0., -2.49661021e-02, 0.,
          1.84362778e-03, 0., 0., 0., 0., -1.67199131e-02,
          3.78685334e-04, -1.22439945e-02, 0., -8.78699124e-03, 0., 0.,
          0., 0., 0., 0., 0., 0., -3.27852331e-02, 0., 3.17173754e-03,
          0., 0., 0., 0., 0., 0., 0., 2.65137129e-03, 0., 0., 0., 0., 0.,
          -9.21014638e-04, -4.09136730e-04, -4.45310073e-03,
          -6.13978505e-03, 0., 0., 0., 0., 0., -7.65434047e-03,
          -7.24490685e-03, 1.22961449e-03, 2.07562819e-02,
          -9.18269041e-04, 3.87712754e-03, 0., -8.12780298e-03,
          6.22536929e-04, 1.16406232e-02, 9.83609702e-04, 0., 0., 0.,
          -2.72387564e-02, 0., 0., -6.42900879e-04, -1.69507917e-02, 0.,
          -1.52621698e-02, 0., 0., -6.89771213e-03, -1.23982141e-02, 0.,
          0., 0., -4.96951956e-03, 0., 0., -8.83858744e-03, 0.,
          -5.40768169e-03, -3.18881404e-03, -3.18881404e-03,
          1.40522597e-02, 0., 0., 0., 0., 0., 1.47694023e-02, 0., 0.,
          -1.36062494e-02, -2.22237338e-03, 0., 0., 0., 0.,
          -3.65173444e-02, 0., 0., 0., 0., 0., 3.17154941e-03,
          4.55779769e-03, -7.15955421e-02, 0., -2.31822468e-02, 0., 0.,
          0., -4.13935492e-03, 0., 0., 0., -1.92678422e-02,
          2.32760748e-03, 0., 0., -1.84149183e-02, 2.94676353e-03, 0.,
          -5.35841240e-03, 0., 0., -1.33406185e-02, -5.54321567e-03, 0.,
          -2.46804636e-02, 0., 0., 0., -2.23356970e-02, 0., 0., 0.,
          -5.13452664e-02, 0., 0., -7.44129904e-03, 0., -1.43208643e-02,
          0., 0., 0., 0., 0., 0., 0., 0., 0., 0., 0., 0., 0.,
          -8.12780298e-03, 0., 0., 0., 0., 3.52319446e-03, 0.,
          3.60932807e-03, 0., 0., -2.11241632e-03, -7.57831037e-02,
          -1.36741586e-02, 0., -9.69586521e-03, 8.77632871e-02, 0.,
          -1.64035289e-03, -7.83004425e-03, 0., -1.75209325e-02, 0.,
          -2.03988664e-02, 4.72161286e-02, -3.62337148e-03,
          4.07139352e-03, -1.65165099e-03, 1.46875787e-03,
          -7.50941550e-03, 1.48095824e-02, 0., 0., 0., -2.58129532e-03,
          3.81259038e-03, 2.44715135e-03, 0., 0., -9.48506035e-03, 0.,
          0., 0., 4.61177435e-04, 0., 0., -2.21714214e-03, 0.,
          -4.00973903e-03, 0., 0., 0., -1.91847607e-02, 0., 0., 0., 0.,
          0., 0., 0., 8.18199757e-03, 0., -6.53868401e-03, 0.,
          2.00346756e+00, 1.99131870e+00, 2.00482607e+00, 2.00843787e+00,
          1.98847687e+00, 2.23401394e-02, 3.21472026e-02, 2.82478123e-03,
          1.99514735e+00, 1.98536551e+00, 1.97578359e+00, 1.97050261e+00,
          2.00578713e+00, 0., 1.96932113e+00, 1.03641525e-01,
          1.97947323e+00, 0., 1.96395147e+00, 1.99665582e+00,
          1.96927905e+00, 1.96667039e+00, -6.19232701e-03,
          4.26956220e-03, 0., 0., 0., 0., 0., 0., 0., 0.,
          -5.10312011e-03, 3.00463685e-03, 0., 0., 1.89536139e-02, 0.,
          4.13604779e-03, 0., 2.09964179e-02, 0., 0., 0.,
          -9.31427721e-03, -1.30756688e-03, -6.71158254e-04,
          1.08943821e-03, -2.57086046e-02, -8.33298452e-03,
          -4.92056832e-03, 0., 0., 0., 0., 0., 0., -2.80088396e-03,
          -7.97801930e-03, 1.17308088e-02, 6.37371500e-04,
          -6.47577737e-03, -7.23618316e-03, 0., -1.13048702e-02,
          -1.19953221e-02, 0., 0., 0., 0., -9.20212492e-02, 0.,
          7.28845457e-03, -5.15615428e-03, -7.32801761e-03,
          -1.11097768e-02, 0., 0., -1.88175738e-02, 0., 0., 0., 0., 0.,
          0., 0., 0., 0., 0., 0., 0., 0., 1.07185980e-02, 0., 0.,
          -8.61747656e-03, -1.22040035e-02, 0., 0., 0., 1.19447388e-01,
          0., 0., -3.40927169e-02, -7.23618316e-03, 0., 0., 0., 0., 0.,
          0., 0., 0., 5.26265167e-02, 0., -1.22165196e-02, 0., 0., 0.,
          0., 0., 1.74339395e-02, 0., 0., 0., 0., 0., 0., 0., 0.,
          1.36799831e-02, 0., 0., 4.57634255e-02, 0., 0., 0., 0., 0.,
          -1.66456029e-03, 0., 0., 0., -2.38552690e-02, 0., 0.,
          -8.12780298e-03, 0., 0., 0., 0., 3.05892006e-02,
          2.46642809e-02, 0., 0., 0., 0., 0., 0., 0., 0., 0., 0., 0.,
          3.03775594e-02, 0., 0., 0., 0., 0., 0., -1.01023139e-02,
          5.49418386e-03, -4.03443947e-02, -7.09973322e-03, 0.,
          -1.45620219e-02, -1.25454497e-02, -7.42586609e-03,
          -1.16764531e-02, 0., -1.22165196e-02, -3.39729302e-02, 0., 0.,
          0., -1.22664487e-02, -2.51506623e-02, -1.71032473e-02,
          -3.22697888e-04, 0., -1.00730807e-02, -2.62500299e-03,
          -1.80467628e-02, 3.59599449e-04, -2.39691548e-02,
          -2.47180667e-02, -1.30599830e-02, 2.34565511e-02,
          -7.63640739e-03, -1.17690824e-02, 0., -7.36527611e-03,
          -2.19221637e-02, 0., 0., -7.96827581e-03, -9.66088474e-03,
          -9.46260337e-03, -2.75376160e-03, -2.88695376e-02,
          -8.29202589e-03, -1.66724678e-02, 4.03011963e-03,
          -4.84175468e-03, -1.39950840e-02, -5.90695255e-03,
          -2.18793396e-02, -3.12768184e-02, -1.39090763e-02,
          -2.26904340e-02, 0., 0., -8.24541040e-03, -2.30290685e-02,
          -9.00860596e-03, -2.20804829e-02, -1.31170591e-03,
          -1.58908926e-02, -5.84196579e-03, -7.44129904e-03,
          -2.26578284e-02, -5.65969711e-03, -2.59658927e-03,
          -9.53996740e-03, -1.92712080e-02, -8.86540301e-03, 0., 0., 0.,
          0., 0., 0., 0., 0., 0., 0., 2.46642809e-02, 0., 0., 0., 0., 0.,
          0., 0., 0., 0., 0., 0., 0., 0., 0., 0., 0., 0., 0., 0., 0., 0.,
          0., 0., 0., 0., 0., 0., 0., 0., 0., 0., 0., 0., 0., 0., 0.,
          3.79668288e-02, 0., 0., 0., 0., 0., 1.73645690e-02,
          7.38261035e-03, 2.68686679e-03, 0., 0., 0., 0., 0., 0., 0., 0.,
          0., 1.37901865e-02, 0., 3.91183905e-02, 0., 0., 0.,
          6.40757615e-03, 0., 0., 0., 0., 4.76809638e-03, 0., 0., 0., 0.,
          0., 0., 0., 0., 0., 0., 0., 0., 0., 0., 0., 0., 0., 0., 0., 0.,
          0., 0., 4.76809638e-03, 0., 0. ]
      - [ -1.10155106e+00, -6.55586243e-01, -6.88403785e-01,
          -7.06492305e-01, -7.10923016e-01, -6.70265257e-01,
          -9.23789144e-02, -5.26199102e-01, -6.94232702e-01,
          -7.06446096e-02, -5.84334731e-02, -7.02416718e-01,
          -1.32709309e-01, 0., -6.89798474e-01, -6.89944446e-01,
          -6.48006320e-01, 0., -4.70337383e-02, -6.51372373e-01,
          -6.90338194e-01, -6.58298254e-01, -7.15904534e-01,
          -7.98800766e-01, -6.68917179e-01, 2.83151623e-02,
          -2.90481956e-03, 0., 0., 0., 0., 0., -4.52635773e-02, 0., 0.,
          0., 0., -2.90481956e-03, 1.74289700e-02, -5.20309508e-02, 0.,
          -8.59821811e-02, 0., 0., 0., 0., 0., 0., 0., 5.96924627e-04,
          2.94293165e-02, 0., 1.74289700e-02, 0., -4.70337383e-02, 0.,
          -8.92053396e-02, 0., -1.11072384e-01, 0., 0., 0., 0., 0., 0.,
          0., 2.46090852e-02, 0., 3.47558819e-02, 9.63078626e-03, 0., 0.,
          0., 5.59445202e-01, 0., -3.06704640e-03, 3.69773507e-02,
          3.49769481e-02, 0., -8.50028470e-02, -3.67746294e-01, 0.,
          -4.38437797e-02, 2.80930046e-02, -3.32634337e-02,
          -2.63242051e-02, 0., 0., 0., -2.72259265e-02, 0.,
          -3.13707501e-01, -4.71996982e-03, -6.79949760e-01, 0.,
          -5.65129854e-02, 0., 3.36792991e-02, -4.28719848e-01, -1.,
          -9.23789144e-02, 0., 0., 4.60772868e-03, 0., 0.,
          1.74289700e-02, 0., -1.64179802e-02, -4.91565168e-02,
          -4.91565168e-02, -7.81377894e-04, 0., -6.60996318e-01, 0., 0.,
          0., 0., 0., 0., 0., 2.27279160e-02, 0., 0., 0., 0.,
          2.90084053e-02, 0., 0., 0., 0., 0., 3.43483989e-03,
          -4.61394489e-02, -4.72818352e-02, 0., 0., 0., 0.,
          -1.90435141e-01, 2.25063208e-02, -2.01323424e-02, 0., 0.,
          3.59354876e-02, -5.51550016e-02, 0., -2.09570825e-02,
          3.46961953e-02, -8.48849267e-02, 0., -1.02747846e-02, 0.,
          -6.54840916e-02, 8.77760630e-03, 2.98374221e-02, 0.,
          -3.23341903e-03, 0., -1.40222553e-02, 0., 0., -1., 0., 0.,
          -7.86656439e-02, 0., 0., 0., -6.85542405e-01, 0., 0., 0., 0.,
          0., 0., 0., -1., -3.23341903e-03, 0., 0., 0., 0., 0.,
          -7.47864554e-03, -7.47864554e-03, 0., -7.76876658e-02, 0., 0.,
          0., 0., 0., 0., 4.74507287e-02, -2.15144843e-01,
          -1.40601665e-01, 0., 1.06689353e-02, 7.77826533e-02, 0.,
          -6.85876086e-02, 4.74507287e-02, 0., 1.48267657e-01, 0.,
          -6.02906533e-02, 6.11085072e-02, -1.69627145e-01,
          4.74507287e-02, 3.06848958e-02, -6.04609959e-02,
          -9.00400281e-02, 4.74507287e-02, 0., 0., 0., -2.24032253e-02,
          -3.91676202e-02, -9.14508402e-02, 0., 0., -6.11156285e-01, 0.,
          0., -1.50889471e-01, -3.95957939e-03, 0., 0., 2.86616832e-02,
          0., 0., 0., 0., 0., -3.61616276e-02, 0., 0., 0.,
          -8.99006367e-01, 0., -8.99006367e-01, -1., -1.21962644e-01, 0.,
          4.83154878e-02, 0., 2.01192093e+00, 1.82906008e+00,
          1.98795164e+00, 2.02374077e+00, 1.97901857e+00,
          -1.12968042e-01, -3.22490968e-02, -6.79690838e-01,
          2.03605366e+00, 1.93301558e+00, 2.50172091e+00, 1.27928030e+00,
          2.06785512e+00, 0., 1.34442985e+00, 1.42838851e-01,
          1.39307952e+00, 0., 1.08726919e+00, 1.27625239e+00,
          1.28576303e+00, 1.12659693e+00, 8.72691870e-02, 1.03730351e-01,
          0., 0., 0., 0., 0., 0., 0., 0., 0., 3.03299427e-02, 0., 0.,
          1.03730351e-01, 0., 0., 0., 0., 0., 0., 0., 8.22206065e-02,
          6.20669127e-01, 9.36412454e-01, 8.72691870e-02, 2.36230746e-01,
          0., 1.07422449e-01, 0., 0., 0., 0., 0., 0., 6.71761692e-01,
          1.68728560e-01, 0., 1.04115546e-01, 4.58047353e-02,
          8.22206065e-02, 0., 5.71280181e-01, 0., 0., 0., 0., 0.,
          1.14388369e-01, 0., 8.92112255e-02, 8.92112255e-02, 0., 0., 0.,
          0., 0., 0., 0., 0., 0., 0., 0., 4.03758734e-02, 0.,
          1.18342387e-02, 0., 0., 0., 0., 1.66400358e-01, 0.,
          -5.83108105e-02, 5.59445202e-01, 0., 0., 9.06511769e-02, 0.,
          7.05445930e-02, 0., 0., 0., 0., 0., 0., 0., 0.,
          -6.54840916e-02, 0., 1.45670399e-01, 0., 8.24584626e-03, 0.,
          -7.73479491e-02, 0., 0., 0., 0., 0., 0., 0., 0., 0., 0., 0.,
          -4.67099659e-02, 0., 0., 2.63897255e-02, 0., 0.,
          6.92085847e-02, -6.37406558e-02, -2.52849367e-02, 0., 0., 0.,
          -9.70883947e-03, 0., -1.65193547e-02, 0., 0., 0., 0.,
          -3.92603092e-02, 0., 0., 0., 0., -9.29950401e-02,
          -7.61324018e-02, 0., -1., 0., -4.51780558e-01, -3.15305628e-02,
          0., -5.92944801e-01, 0., -1.40679285e-01, 0., -1.32709309e-01,
          -7.12533772e-01, 0., 0., 0., 0., 0., 0., 1.53097641e-02,
          -1.96438599e-02, -6.71066344e-03, -1.95016954e-02,
          -6.05916604e-03, 0., -5.61377890e-02, -1.06385015e-01, 0., 0.,
          0., 0., 0., 0., 0., -7.20486557e-03, -3.71121094e-02,
          6.57897592e-02, 2.69835107e-02, 0., 3.28168459e-02,
          -2.65577789e-02, 4.24059946e-03, 2.89556738e-02,
          4.66503128e-02, 0., 9.22009908e-03, 0., 0., 1.91717912e-02, 0.,
          -8.38905759e-03, 0., 0., 0., -1.75705105e-01, 1.09734694e-02,
          -8.05409160e-03, -5.62294014e-02, 0., -5.62294014e-02, 0., 0.,
          0., 0., 4.87414636e-02, -8.54095258e-03, 0., -1.37577122e-02,
          -1.72075983e-02, 0., 0., 0., -4.35506031e-02, 7.02076331e-02,
          -2.78346054e-02, -6.04609959e-02, 0., 8.80253501e-03, 0., 0.,
          0., 0., 0., 0., -6.05916604e-03, 0., 0., 0., 0., 0., 0., 0.,
          0., 0., 0., 5.71280181e-01, 0., 0., 0., -2.88567115e-02, 0.,
          0., 0., 0., 1.53609350e-01, 0., 0., 0., 0., 0., 0., 0., 0.,
          1.24486992e-02, 0., 0., 0., 0., 0., 0., 0., 0., 0., 0., 0., 0.,
          0., 0., 0., 0., 0., 0., -4.19258289e-02, 0., 0., 0., 0., 0.,
          0., 1.18564554e-01, -2.55645458e-02, 8.17882866e-02, 0., 0.,
          0., 0., 0., 0., 0., 0., -4.74900156e-01, 9.84764248e-02,
          -2.62887832e-02, 0., 0., 0., 1.18564554e-01, 0.,
          -1.52895078e-01, 0., 3.18707749e-02, 5.01779057e-02, 0.,
          -8.96258652e-01, 0., 0., -8.28342319e-01, 0., 0., 0.,
          -7.62133420e-01, 1.18342387e-02, 0., 0., 3.20630938e-01,
          7.21648455e-01, 0., 0., 4.03758734e-02, 0., 0., 0., 0.,
          9.06511769e-02, 8.07680562e-02, 0., 0. ]
      - [ -3.05948943e-01, -6.72872126e-01, -8.21031511e-01,
          -1.10356843e+00, -7.62001991e-01, -1.39672506e+00, 0., 0.,
          -7.46004999e-01, 5.75787202e-03, -2.38026381e-01,
          -6.21446013e-01, 0., 0., -4.85668659e-01, -5.55838704e-01,
          -3.66743654e-01, 0., -3.16873677e-02, -2.95002967e-01,
          -4.97344956e-02, -6.40452862e-01, 0., 0., -4.05104868e-02,
          -3.01652402e-02, 0., 0., 0., 0., 0., 0., -2.00473934e-01, 0.,
          0., 0., 0., -5.10950089e-02, -4.46115196e-01, -5.34126535e-02,
          0., -4.70933244e-02, 0., 0., 0., 0., 4.67414826e-01, 0., 0.,
          0., 3.51223409e-01, 0., -3.00942779e-01, 0., -1.35140764e-02,
          0., 0., -1.09401509e-01, 0., 0., 5.06742179e-01, 0., 0., 0.,
          0., 0., -1.43419923e-02, -4.10885006e-01, 2.04538018e-01,
          -6.42590374e-02, -4.88721788e-01, 0., 0., 0., 0., 0.,
          7.46016026e-01, 5.43459296e-01, 0., 2.64404621e-02,
          -2.78841686e-02, 0., 0., -2.80599564e-01, 0., -4.79463302e-02,
          0., 0., 0., 1.02131180e-02, 0., 1.66057292e-02,
          -8.31445932e-01, 3.42603922e-02, 0., 3.03220730e-02, 0.,
          -3.98147106e-01, 0., 0., 0., 1.23544887e-01, 0.,
          -3.71625125e-02, 0., 0., 1.23544887e-01, 0., 1.62640028e-02,
          3.44276726e-02, 3.44276726e-02, 0., 0., -8.91172141e-02, 0.,
          0., 0., 0., 0., 0., 0., -1.70191973e-02, 0., 0., 0., 0.,
          1.23544887e-01, 0., 0., -6.42590374e-02, 0., 0.,
          -4.25069369e-02, 0., 0., 0., 0., 0., 0., 2.70805005e-02,
          2.70805005e-02, 0., 0., 0., 0., 1.83151573e-01, 0., 0., 0.,
          1.32874385e-01, 0., 0., 0., -3.67948502e-01, 0., 0., 0., 0.,
          0., 0., 0., 0., 0., 0., 0., 0., 0., 0., 0., 0.,
          -6.36664256e-02, 0., 0., 0., 0., 0., 0., 0., 0., 0., 0., 0.,
          0., 0., 0., 0., 0., 0., 0., 0., 0., 0., 0., 0., 0., 0., 0., 0.,
          0., 0., 0., 0., 0., 0., 0., 0., 0., 0., 4.52775240e-01, 0., 0.,
          1.63499102e-01, 0., 0., 0., 0., 0., 6.47799790e-01, 0., 0., 0.,
          0., 1.78609565e-01, 0., 0., 1.63499102e-01, 1.63499102e-01, 0.,
          0., 5.97364753e-02, 0., 0., 0., 0., 0., 1.32874385e-01, 0., 0.,
          0., 0., 0., 0., 0., 0., 0., 0., 0., 0., 0., 0., 3.03220730e-02,
          4.52775240e-01, 0., 0., 0., 0., 0., 4.40058529e-01, 0., 0., 0.,
          0., 0., 1.58668607e-01, 0., 0., 0., 0., 0., 0., 0., 0., 0., 0.,
          0., 0., 0., 0., 0., 1.02131180e-02, 0., 0., 0., 0., 0., 0., 0.,
          0., 0., 2.60569870e-01, 0., -1.75768152e-01, -5.60620010e-01,
          -3.31364840e-01, -4.78250086e-01, -6.87528193e-01,
          -3.44934642e-01, -3.74372840e-01, 0., -1.83472529e-01, 0., 0.,
          -1.97705790e-01, -2.46039197e-01, -7.11472988e-01,
          -5.29338002e-01, 3.63195539e-01, -4.86438274e-02,
          -4.61722583e-01, -1.75245374e-01, -1.90254524e-01,
          -4.37124521e-01, -1.83832109e-01, -1.81390330e-01, 0., 0.,
          -2.54920959e-01, -2.05822304e-01, -2.42792949e-01,
          -4.46115196e-01, -4.46115196e-01, -1.83362886e-01,
          -1.80876583e-01, -4.92238551e-02, -2.32114241e-01,
          -1.84285074e-01, -2.01126844e-01, 0., -2.02680662e-01,
          -3.95409733e-01, -1.91680416e-01, -2.04429269e-01,
          -1.87934905e-01, -1.94708943e-01, -7.08278179e-01,
          -1.92711458e-01, -4.71696347e-01, -1.84453607e-01,
          -2.14938760e-01, -6.29656672e-01, 1.74297333e-01,
          -1.96934775e-01, -4.00766701e-01, -1.94963709e-01, 0.,
          -7.38822222e-01, -2.11723194e-01, -1.96214020e-01,
          -2.41672441e-01, -2.40837052e-01, 0., -1.98709190e-01, 0.,
          -2.23426491e-01, -1.77159160e-01, 2.23106414e-01,
          -7.77479112e-02, 0., 0., 0., -4.81445640e-02, 0.,
          1.09230667e-01, 0., 0., 0., 0., 0., 0., 0., 0., 0., 0., 0.,
          -3.69231366e-02, 0., 0., 2.64584512e-01, 0., 0., 0., 0.,
          -4.31534141e-01, 0., 1.13584876e-01, 0., -5.62119186e-02, 0.,
          0., 0., 0., 0., 0., -5.79409540e-01, 0., 0., 0., 0.,
          2.57632166e-01, 9.99898687e-02, 0., 0., 0., 0., 0., 0.,
          3.01880807e-01, 0., 7.38296211e-01, 1.18143044e-01, 0.,
          5.85163295e-01, 0., 0., 0., 0., 0., 0., 1.10215139e+00,
          3.24836150e-02, 1.11422205e+00, 8.50800037e-01, 0.,
          1.73451573e-01, 0., 1.24870121e+00, 1., 0., 4.64485765e-01,
          1.68859735e-01, 0., 0., 0., 0., 1.07646298e+00, 1.,
          2.57853419e-01, 0., 1.38665915e+00, 9.62288082e-01,
          1.60385323e+00, 1.19779086e+00, 0., 0., 9.32207346e-01, 0.,
          7.38296211e-01, 1.05973649e+00, 0., 1.61171138e+00,
          5.72590888e-01, 0., 0., 1.52284026e+00, 1.77041256e+00,
          1.43690753e+00, 1.02219319e+00, 1., 1., 0., 0., 3.80436122e-01,
          9.89135623e-01, 1.44522691e+00, 1.13701451e+00, 1.31768394e+00,
          1.50155616e+00, 1.48780632e+00, 2.41312638e-01, 0., 0.,
          1.24074066e+00, 1.28022277e+00, 1.63417900e+00, 1.00667667e+00,
          0., 1.80119729e+00, 6.07210994e-01, 1.28769171e+00,
          3.89522433e-01, 8.92920315e-01, 3.76392424e-01, 3.65937144e-01,
          0., 0., 0., 0., 0., 0., 1.12594649e-01, 0., 0., 0., 0., 0., 0.,
          0., 0., 1.22807771e-01, 0., 3.53616655e-01, 0., 0., 0., 0., 0.,
          0., 0., 0., 0., 0., 2.65639395e-01, 0., 3.73290896e-01, 0.,
          1.85919970e-01, 0., 0., 0., 1.00330427e-01, 0., 0., 0., 0., 0.,
          0., 0., 0., 0., 0., 0., 1.59379542e+00, 3.15636128e-01,
          9.14656818e-01, 5.29574215e-01, 0., 0., 1.44337690e+00,
          6.79179907e-01, 1.18138194e+00, 1.07607973e+00, 0.,
          2.07955182e-01, 0., 0., 9.82119620e-01, 0., 0., 0.,
          7.62809277e-01, 4.60624903e-01, 1.45161712e+00, 0.,
          5.36436811e-02, 0., 1.49109459e+00, 0., 1.62947834e+00,
          5.09814978e-01, 2.82038987e-01, 8.35009336e-01, 4.54272658e-01,
          -8.13299641e-02, 0., 1.48126686e+00, 9.10767674e-01,
          6.55654132e-01, 0., 9.42330897e-01, 3.89522433e-01, 0., 0., 0.,
          3.21996480e-01, 0., 4.52775240e-01, 0., 6.17900491e-01,
          5.87575316e-01, 1., 0., 1.89508602e-01, 3.21996480e-01,
          8.26382101e-01, 0., 1.01021314e+00 ]
      - [ 3.81916314e-02, 6.01768494e-02, 5.32048345e-02,
          -7.11827427e-02, 2.63018068e-03, -2.18127832e-01, 0., 0.,
          -4.02446985e-02, -4.02446985e-02, -3.23077798e-01,
          1.44546255e-01, 0., 0., -2.71611810e-01, 0., -2.68101506e-02,
          0., 0., 0., 1.83613300e-01, -8.02272856e-02, -1.76741704e-02,
          -6.71959296e-02, -2.11315706e-01, -1.98258862e-01, 0., 0., 0.,
          0., 5.39860614e-02, -2.74202693e-02, 5.12980260e-02, 0., 0.,
          0., 0., 1.91344410e-01, -7.15511153e-03, 1.38131663e-01,
          -2.74202693e-02, -1.49804577e-02, 0., 0., 0., 1.41312018e-01,
          2.75938988e-01, 0., 1.99176632e-02, 0., 6.30929828e-01, 0.,
          5.12562655e-02, 0., 1.44397631e-01, 0., -8.56864974e-02,
          -5.28070182e-02, 2.20591009e-01, -5.72960153e-02,
          -6.39719218e-02, -5.28070182e-02, 0., 0., 0., 0.,
          -1.35562077e-01, 0., -1.07817976e-02, -1.34832740e-01,
          5.83810247e-02, 0., 0., 0., 0., 0., 6.72017634e-02,
          9.96063836e-03, 0., -8.64871219e-02, -1.86518192e-01, 0., 0.,
          -1.52008254e-02, -3.68817449e-01, -6.63654283e-02, 0., 0., 0.,
          4.79019322e-02, 0., -3.52899469e-02, 7.47013912e-02,
          -1.62359938e-01, 0., 2.46192649e-01, -1.30183965e-01, 0.,
          -9.37405899e-02, 0., 0., -1.08856253e-01, 0., 3.92118096e-02,
          0., 0., -2.12001763e-02, 0., 6.20423369e-02, 0., 0.,
          -2.12001763e-02, 0., 0., -4.45806310e-02, 0., 0., 0., 0.,
          -3.02827619e-02, 0., 4.29267734e-02, 0., 0., 0., 0., 0., 0.,
          0., 0., 5.29589728e-02, 0., 4.93560806e-02, 0.,
          -3.72733921e-02, -1.57604888e-02, 0., 0., 0., 0.,
          2.67183017e-02, 0., 0., -1.00806795e-01, -7.33310506e-02,
          4.64786030e-02, 0., 0., 0., -4.45427820e-02, 0.,
          3.17434929e-02, 0., 1.66227192e-01, 1.63935386e-02, 0., 0.,
          -5.73048629e-02, 0., -4.45427820e-02, 0., 0., 2.65253395e-01,
          0., -1.76741704e-02, 0., 0., 0., 0., -3.11004114e-03, 0., 0.,
          -1.13149323e-01, 0., 0., 0., -3.97280529e-02, 0.,
          -7.25613832e-02, 0., 0., 0., -3.97280529e-02, 0.,
          -1.13018803e-01, -6.38273135e-02, 0., -2.13391840e-01, 0.,
          -1.13018803e-01, 6.50392413e-01, 0., 0., -1.46713555e-01,
          -4.70891818e-02, 6.94113001e-02, 0., 1.40490055e-01,
          -1.21828215e-02, 0., 3.03543564e-02, 0., 0., 0., 0., 0., 0.,
          0., 5.10300025e-02, -1.52215078e-01, -3.84441055e-02,
          4.47192751e-02, -4.37617414e-02, 0., -6.78766444e-02, 0., 0.,
          -3.56984697e-02, 5.03291935e-02, 0., 0., 0., -8.16217288e-02,
          0., 0., -1.25846177e-01, -6.67291954e-02, 0., 0.,
          -3.11960280e-02, 0., 0., 0., 0., 0., 0., 0., 0., 0., 0., 0.,
          0., 0., 0., -1.10449284e-01, 0., -1.13018803e-01,
          -6.31575733e-02, -3.63745280e-02, 1.61841661e-02,
          3.79249081e-02, 4.28538360e-02, -7.50156790e-02,
          -1.50020212e-01, -1.02048190e-02, -3.69880497e-02, 0.,
          1.42071387e-02, 0., 0., 0., 0., 0., -1.63140774e-01, 0., 0.,
          0., -4.10245173e-02, 0., -1.00628272e-01, -4.10245173e-02,
          4.89914641e-02, 0., 0., 0., 0., 0., 0., 0., -1.56932846e-02,
          -3.52834575e-02, 0., 0., 0., 0., -2.15217639e-02, 0.,
          5.29589728e-02, 0., 1.06807955e-01, 0., -1.46939317e-02,
          1.67974376e-03, -2.58386936e-02, 9.63188335e-03,
          8.78685042e-02, 6.95956349e-02, 5.52460030e-02, 0., 0., 0., 0.,
          0., 0., -8.92401394e-03, -5.86032979e-02, 0., -8.36412311e-02,
          4.67663817e-02, 1.84404792e-03, -6.34813011e-02, 0.,
          -8.31868649e-02, 0., 0., 0., 0., 1.01058021e-01, 0., 0.,
          4.05916534e-02, 0., -4.45806310e-02, 0., 0., 0.,
          -4.10245173e-02, 0., -3.52834575e-02, -4.07816172e-02, 0.,
          7.73276627e-01, -5.71559109e-02, 0., 0., 0., 0.,
          6.29205257e-02, 0., -1.60715714e-01, 1.12935781e-01,
          -3.09233721e-02, -2.76817948e-01, 0., 0., -9.87653360e-02, 0.,
          0., 0., -1.07670017e-01, -3.88774369e-03, 0., -5.84958121e-02,
          0., -2.06676219e-02, 8.07731226e-02, -2.55795449e-01, 0., 0.,
          0., -3.78949717e-02, 0., 2.22568944e-01, 0., 0., 0., 0., 0.,
          0., 5.01966551e-02, 0., 0., 4.97454591e-02, 0., 0., 0., 0.,
          -4.50638756e-02, 0., 0., 3.83662492e-01, 0., 7.46169537e-02,
          0., -1.13900527e-01, 0., 2.51760483e-02, 0., 0., 0.,
          -1.71447378e-02, 0., 0., 0., 0., 0., 0., 0., -3.30141038e-01,
          -3.23798239e-01, 4.73334901e-02, -2.70869672e-01,
          4.08302769e-02, -3.43701452e-01, -3.72195125e-01,
          -2.65320867e-01, -2.24573031e-01, 0., -2.71572918e-01,
          -2.56191820e-01, -3.13234001e-01, -2.91788042e-01,
          -3.28266919e-01, -4.09608990e-01, -6.51424890e-03,
          -2.12620512e-01, 1.69372112e-01, -3.97280529e-02,
          -2.50314027e-02, -1.20660542e-02, 7.82558098e-02,
          -1.11877806e-02, 3.46370973e-02, -1.43862609e-02,
          5.04937991e-02, 6.23593405e-02, -1.18424511e-03, 0.,
          -4.29267809e-02, 8.88946354e-02, 0., 0., 2.89410688e-02,
          -7.02931210e-02, 2.66523883e-02, -6.79067010e-03,
          -5.48522696e-02, -8.11982714e-03, -4.52099508e-03,
          -4.52494137e-02, 2.39101984e-02, 8.21533334e-03,
          1.95379686e-02, -7.57477283e-02, 1.43559079e-03, 0.,
          6.72617629e-02, 9.75691993e-03, 0., -3.37438483e-04,
          1.01222023e-02, 0., 0., 3.62451486e-02, 7.27066724e-03,
          1.75124612e-02, 4.80439737e-02, -9.86495838e-02,
          -3.70193943e-02, 8.76308512e-03, 1.77921802e-02,
          3.97492610e-02, 0., -3.96988839e-02, -3.26410797e-03,
          5.93958609e-02, -3.93028483e-02, 3.71006830e-03, 0., 0., 0.,
          4.38626446e-02, -4.21437994e-02, 4.32346538e-02,
          -1.28897447e-02, 0., 7.64922006e-03, -1.09347373e-01,
          -8.80437996e-03, 0., 3.08932029e-02, 0., 2.35896315e-02, 0.,
